{"learner":{"attributes":{"scikit_learn":"{\"_estimator_type\": \"regressor\"}"},"feature_names":["year","month","day","day_of_week","week_of_year","quarter","is_public_holiday","is_day_after_public_holiday","is_school_holiday","temperature","precipitation","humidity","pollen_index","temp_extreme_hot","temp_extreme_cold","is_flu_season","is_flu_peak","is_hayfever_season","is_thunderstorm_asthma","illness_driver_count","dow_sin","dow_cos","month_sin","month_cos","doy","doy_sin","doy_cos","woy_sin","woy_cos","is_weekend","is_monday","season_Autumn","season_Spring","season_Summer","season_Winter","patients_lag_1","patients_lag_2","patients_lag_3","patients_lag_7","patients_lag_14","patients_lag_21","patients_lag_28","patients_lag_60","patients_lag_90","lag_7_same_dow","lag_14_same_dow","lag_21_same_dow","lag_28_same_dow","mean_last_4_same_dow","rolling_mean_3d","rolling_std_3d","rolling_max_3d","rolling_min_3d","rolling_mean_7d","rolling_std_7d","rolling_max_7d","rolling_min_7d","rolling_mean_14d","rolling_std_14d","rolling_max_14d","rolling_min_14d","rolling_mean_30d","rolling_std_30d","rolling_max_30d","rolling_min_30d","rolling_mean_60d","rolling_std_60d","rolling_max_60d","rolling_min_60d","rolling_mean_90d","rolling_std_90d","rolling_max_90d","rolling_min_90d","ewma_7d","ewma_14d","ewma_30d","weather_encoded","weather_Cloudy","weather_Partly Cloudy","weather_Rainy","weather_Sunny","ph_x_monday","flu_peak_x_rainy","hayfever_x_high_pollen","school_holiday_x_weekend","extreme_cold_x_flu_season","day_after_ph_x_monday"],"feature_types":["int","int","int","int","int","int","int","int","int","float","float","int","int","int","int","int","int","int","int","int","float","float","float","float","int","float","float","float","float","int","int","int","int","int","int","float","float","float","float","float","float","float","float","float","float","float","float","float","float","float","float","float","float","float","float","float","float","float","float","float","float","float","float","float","float","float","float","float","float","float","float","float","float","float","float","float","int","int","int","int","int","int","int","int","int","int","int"],"gradient_booster":{"model":{"gbtree_model_param":{"num_parallel_tree":"1","num_trees":"500"},"iteration_indptr":[0,1,2,3,4,5,6,7,8,9,10,11,12,13,14,15,16,17,18,19,20,21,22,23,24,25,26,27,28,29,30,31,32,33,34,35,36,37,38,39,40,41,42,43,44,45,46,47,48,49,50,51,52,53,54,55,56,57,58,59,60,61,62,63,64,65,66,67,68,69,70,71,72,73,74,75,76,77,78,79,80,81,82,83,84,85,86,87,88,89,90,91,92,93,94,95,96,97,98,99,100,101,102,103,104,105,106,107,108,109,110,111,112,113,114,115,116,117,118,119,120,121,122,123,124,125,126,127,128,129,130,131,132,133,134,135,136,137,138,139,140,141,142,143,144,145,146,147,148,149,150,151,152,153,154,155,156,157,158,159,160,161,162,163,164,165,166,167,168,169,170,171,172,173,174,175,176,177,178,179,180,181,182,183,184,185,186,187,188,189,190,191,192,193,194,195,196,197,198,199,200,201,202,203,204,205,206,207,208,209,210,211,212,213,214,215,216,217,218,219,220,221,222,223,224,225,226,227,228,229,230,231,232,233,234,235,236,237,238,239,240,241,242,243,244,245,246,247,248,249,250,251,252,253,254,255,256,257,258,259,260,261,262,263,264,265,266,267,268,269,270,271,272,273,274,275,276,277,278,279,280,281,282,283,284,285,286,287,288,289,290,291,292,293,294,295,296,297,298,299,300,301,302,303,304,305,306,307,308,309,310,311,312,313,314,315,316,317,318,319,320,321,322,323,324,325,326,327,328,329,330,331,332,333,334,335,336,337,338,339,340,341,342,343,344,345,346,347,348,349,350,351,352,353,354,355,356,357,358,359,360,361,362,363,364,365,366,367,368,369,370,371,372,373,374,375,376,377,378,379,380,381,382,383,384,385,386,387,388,389,390,391,392,393,394,395,396,397,398,399,400,401,402,403,404,405,406,407,408,409,410,411,412,413,414,415,416,417,418,419,420,421,422,423,424,425,426,427,428,429,430,431,432,433,434,435,436,437,438,439,440,441,442,443,444,445,446,447,448,449,450,451,452,453,454,455,456,457,458,459,460,461,462,463,464,465,466,467,468,469,470,471,472,473,474,475,476,477,478,479,480,481,482,483,484,485,486,487,488,489,490,491,492,493,494,495,496,497,498,499,500],"tree_info":[0,0,0,0,0,0,0,0,0,0,0,0,0,0,0,0,0,0,0,0,0,0,0,0,0,0,0,0,0,0,0,0,0,0,0,0,0,0,0,0,0,0,0,0,0,0,0,0,0,0,0,0,0,0,0,0,0,0,0,0,0,0,0,0,0,0,0,0,0,0,0,0,0,0,0,0,0,0,0,0,0,0,0,0,0,0,0,0,0,0,0,0,0,0,0,0,0,0,0,0,0,0,0,0,0,0,0,0,0,0,0,0,0,0,0,0,0,0,0,0,0,0,0,0,0,0,0,0,0,0,0,0,0,0,0,0,0,0,0,0,0,0,0,0,0,0,0,0,0,0,0,0,0,0,0,0,0,0,0,0,0,0,0,0,0,0,0,0,0,0,0,0,0,0,0,0,0,0,0,0,0,0,0,0,0,0,0,0,0,0,0,0,0,0,0,0,0,0,0,0,0,0,0,0,0,0,0,0,0,0,0,0,0,0,0,0,0,0,0,0,0,0,0,0,0,0,0,0,0,0,0,0,0,0,0,0,0,0,0,0,0,0,0,0,0,0,0,0,0,0,0,0,0,0,0,0,0,0,0,0,0,0,0,0,0,0,0,0,0,0,0,0,0,0,0,0,0,0,0,0,0,0,0,0,0,0,0,0,0,0,0,0,0,0,0,0,0,0,0,0,0,0,0,0,0,0,0,0,0,0,0,0,0,0,0,0,0,0,0,0,0,0,0,0,0,0,0,0,0,0,0,0,0,0,0,0,0,0,0,0,0,0,0,0,0,0,0,0,0,0,0,0,0,0,0,0,0,0,0,0,0,0,0,0,0,0,0,0,0,0,0,0,0,0,0,0,0,0,0,0,0,0,0,0,0,0,0,0,0,0,0,0,0,0,0,0,0,0,0,0,0,0,0,0,0,0,0,0,0,0,0,0,0,0,0,0,0,0,0,0,0,0,0,0,0,0,0,0,0,0,0,0,0,0,0,0,0,0,0,0,0,0,0,0,0,0,0,0,0,0,0,0,0,0,0,0,0,0,0,0,0,0,0,0,0,0,0,0,0,0,0,0,0,0,0,0,0,0,0,0,0,0,0,0,0,0,0,0,0,0,0,0,0,0,0,0,0,0,0,0],"trees":[{"base_weights":[6.002903E-3,-6.262164E-2,3.744091E-1,-1.7546971E-1,3.9978843E-2,4.4200057E-1,2.6508528E-1,-1.9054241E-1,1.3082461E-2,2.0485349E-2,4.3221292E-1,1.3005941E-2,4.739736E-1,2.790006E-1,5.341521E-3,-2.8957278E-1,-1.340661E-1,-6.1667863E-2,9.316251E-2,2.723136E-2,7.807683E-3,1.3084217E-2,2.4592847E-2,3.1240016E-1,1.7277086E-1,-2.1127415E-1,-3.4136206E-1,-1.8988161E-1,-4.1150138E-2,-1.4760347E-1,-1.095544E-2,1.8357871E-1,6.1960686E-2,1.7327523E-2,9.154971E-3,1.194722E-2,1.953883E-3,-1.1889575E-2,-0E0,-1.8019086E-2,-6.7152255E-3,-1.4627099E-2,-7.5946427E-3,2.412403E-3,-4.215679E-3,-1.0191415E-2,-1.9820544E-3,-3.3723887E-3,3.1541549E-3,1.2095249E-2,5.2620447E-3,1.7320693E-3,5.0123404E-3],"categories":[],"categories_nodes":[],"categories_segments":[],"categories_sizes":[],"default_left":[0,0,0,0,0,0,0,0,0,0,0,0,0,0,0,0,0,0,0,0,0,0,0,0,0,0,0,0,0,0,0,0,0,0,0,0,0,0,0,0,0,0,0,0,0,0,0,0,0,0,0,0,0],"id":0,"left_children":[1,3,5,7,9,11,13,15,-1,17,19,-1,21,23,-1,25,27,29,31,-1,-1,-1,-1,33,35,37,39,41,43,45,47,49,51,-1,-1,-1,-1,-1,-1,-1,-1,-1,-1,-1,-1,-1,-1,-1,-1,-1,-1,-1,-1],"loss_changes":[1.851027E1,7.152776E0,6.6189957E-1,1.9797821E0,2.4155385E0,2.0455837E-1,3.5112858E-2,1.5127821E0,0E0,1.8538291E0,3.103714E-1,0E0,1.2331963E-2,4.6526194E-2,0E0,2.8622818E-1,9.233353E-1,6.144376E-1,4.2956114E-1,0E0,0E0,0E0,0E0,1.605177E-2,7.7870786E-2,2.4122918E-1,1.3448143E-1,3.5571432E-1,2.8164458E-1,2.8929186E-1,3.9367402E-1,1.2716246E-1,1.1378232E-1,0E0,0E0,0E0,0E0,0E0,0E0,0E0,0E0,0E0,0E0,0E0,0E0,0E0,0E0,0E0,0E0,0E0,0E0,0E0,0E0],"parents":[2147483647,0,0,1,1,2,2,3,3,4,4,5,5,6,6,7,7,9,9,10,10,12,12,13,13,15,15,16,16,17,17,18,18,23,23,24,24,25,25,26,26,27,27,28,28,29,29,30,30,31,31,32,32],"right_children":[2,4,6,8,10,12,14,16,-1,18,20,-1,22,24,-1,26,28,30,32,-1,-1,-1,-1,34,36,38,40,42,44,46,48,50,52,-1,-1,-1,-1,-1,-1,-1,-1,-1,-1,-1,-1,-1,-1,-1,-1,-1,-1,-1,-1],"split_conditions":[1E0,1.2328571E2,1.96E2,1E0,1E0,1.62E2,1.9507143E2,1.1E1,1.3082461E-2,1.345E2,1.2578571E2,1.3005941E-2,-6.4205474E-1,7.6E1,5.341521E-3,9.8636826E1,1.2E2,1E0,1E0,2.723136E-2,7.807683E-3,1.3084217E-2,2.4592847E-2,2.7E0,1.5921666E2,2.6E1,6.101093E1,5E-1,-5.197438E-1,1.34E2,3.1011911E1,1.39E1,1.51E2,1.7327523E-2,9.154971E-3,1.194722E-2,1.953883E-3,-1.1889575E-2,-0E0,-1.8019086E-2,-6.7152255E-3,-1.4627099E-2,-7.5946427E-3,2.412403E-3,-4.215679E-3,-1.0191415E-2,-1.9820544E-3,-3.3723887E-3,3.1541549E-3,1.2095249E-2,5.2620447E-3,1.7320693E-3,5.0123404E-3],"split_indices":[16,53,37,6,6,38,57,4,0,48,57,0,25,11,0,74,48,19,3,0,0,0,0,10,65,2,50,10,26,43,66,9,43,0,0,0,0,0,0,0,0,0,0,0,0,0,0,0,0,0,0,0,0],"split_type":[0,0,0,0,0,0,0,0,0,0,0,0,0,0,0,0,0,0,0,0,0,0,0,0,0,0,0,0,0,0,0,0,0,0,0,0,0,0,0,0,0,0,0,0,0,0,0,0,0,0,0,0,0],"sum_hessian":[7.29E2,6.15E2,1.14E2,2.93E2,3.22E2,6.8E1,4.6E1,2.84E2,9E0,3.08E2,1.4E1,1.2E1,5.6E1,4.1E1,5E0,1.01E2,1.83E2,1.44E2,1.64E2,9E0,5E0,6E0,5E1,2.9E1,1.2E1,4.3E1,5.8E1,1.13E2,7E1,5.2E1,9.2E1,4E1,1.24E2,2.1E1,8E0,7E0,5E0,3.8E1,5E0,5.2E1,6E0,2.8E1,8.5E1,2.2E1,4.8E1,3.3E1,1.9E1,5.3E1,3.9E1,2.1E1,1.9E1,7.5E1,4.9E1],"tree_param":{"num_deleted":"0","num_feature":"87","num_nodes":"53","size_leaf_vector":"1"}},{"base_weights":[-4.5744055E-3,-1.4551233E-1,1.4841224E-1,-1.9713338E-1,-1.6155234E-3,6.702291E-2,3.4451807E-1,-2.757661E-1,-1.3960999E-1,-2.9814558E-2,2.142359E-2,5.0627332E-2,4.0061778E-1,2.4853961E-1,4.412335E-1,-3.6083692E-1,-2.1974094E-1,-2.578387E-1,-1.09803125E-1,-7.756171E-2,5.5189494E-2,-8.483292E-2,8.122193E-2,1.103965E-2,2.4850313E-2,2.1428655E-1,1.7537627E-2,1.00965295E-2,4.6203777E-1,-3.8182622E-1,-7.5549236E-3,-1.7023318E-3,-2.3459123E-1,-2.9652402E-1,-1.5281272E-3,2.4993442E-2,-1.2964432E-1,-1.929922E-1,-4.972907E-2,-5.6341458E-2,1.2313099E-1,-1.4763683E-1,-0E0,1.2508856E-2,1.2625147E-1,1.15486376E-1,2.4151516E-1,2.4580644E-2,1.4228736E-2,-2.3126168E-2,-1.3576129E-2,-1.2885562E-2,-5.037103E-3,-1.69493E-2,-8.377093E-3,7.2528236E-3,-1.4393763E-3,2.788062E-3,-7.439272E-3,-1.2359329E-2,-4.4982904E-3,-3.4419429E-3,1.9055441E-3,-4.4388357E-3,-7.858548E-5,1.0180556E-3,9.937123E-3,-1.0245397E-2,-5.971453E-4,-2.2077388E-3,5.5106E-3,-7.5675338E-3,1.8762302E-3,4.741753E-3,1.0254743E-2,1.5210183E-3,7.880817E-3,1.3136248E-2,4.4575925E-3],"categories":[],"categories_nodes":[],"categories_segments":[],"categories_sizes":[],"default_left":[0,0,0,0,0,0,0,0,0,0,0,0,0,0,0,0,0,0,0,0,0,0,0,0,0,0,0,0,0,0,0,0,0,0,0,0,0,0,0,0,0,0,0,0,0,0,0,0,0,0,0,0,0,0,0,0,0,0,0,0,0,0,0,0,0,0,0,0,0,0,0,0,0,0,0,0,0,0,0],"id":1,"left_children":[1,3,5,7,9,11,13,15,17,19,-1,21,23,25,27,29,31,33,35,37,39,41,43,-1,-1,45,-1,-1,47,49,-1,-1,51,53,-1,55,57,59,61,63,65,67,69,71,73,75,77,-1,-1,-1,-1,-1,-1,-1,-1,-1,-1,-1,-1,-1,-1,-1,-1,-1,-1,-1,-1,-1,-1,-1,-1,-1,-1,-1,-1,-1,-1,-1,-1],"loss_changes":[1.5437864E1,2.7504892E0,5.410352E0,1.1593246E0,1.1857136E0,1.2691467E0,7.496176E-1,4.0598774E-1,5.022929E-1,3.9209443E-1,0E0,9.7630775E-1,9.148121E-3,5.3893328E-2,7.927227E-2,7.831097E-2,1.6369748E-1,2.3078871E-1,3.6406827E-1,1.6532013E-1,2.7125406E-1,2.35461E-1,5.786154E-1,0E0,0E0,5.2086353E-2,0E0,0E0,8.166313E-3,1.3925552E-1,0E0,0E0,1.4243531E-1,3.4950733E-2,0E0,1.2557352E-1,4.2571902E-1,5.464345E-3,9.298365E-2,1.3919748E-2,1.4499581E-1,1.7015117E-1,1.0017511E-1,3.1402412E-1,2.3540914E-1,1.940751E-2,4.4800878E-2,0E0,0E0,0E0,0E0,0E0,0E0,0E0,0E0,0E0,0E0,0E0,0E0,0E0,0E0,0E0,0E0,0E0,0E0,0E0,0E0,0E0,0E0,0E0,0E0,0E0,0E0,0E0,0E0,0E0,0E0,0E0,0E0],"parents":[2147483647,0,0,1,1,2,2,3,3,4,4,5,5,6,6,7,7,8,8,9,9,11,11,12,12,13,13,14,14,15,15,16,16,17,17,18,18,19,19,20,20,21,21,22,22,25,25,28,28,29,29,32,32,33,33,35,35,36,36,37,37,38,38,39,39,40,40,41,41,42,42,43,43,44,44,45,45,46,46],"right_children":[2,4,6,8,10,12,14,16,18,20,-1,22,24,26,28,30,32,34,36,38,40,42,44,-1,-1,46,-1,-1,48,50,-1,-1,52,54,-1,56,58,60,62,64,66,68,70,72,74,76,78,-1,-1,-1,-1,-1,-1,-1,-1,-1,-1,-1,-1,-1,-1,-1,-1,-1,-1,-1,-1,-1,-1,-1,-1,-1,-1,-1,-1,-1,-1,-1,-1],"split_conditions":[1.27E2,1E0,1E0,8.7E1,1E0,1E0,6.234898E-1,9.1E1,5E-1,1.43E2,2.142359E-2,8.4E1,1.29E2,5E0,3E-1,9.8E1,1.47E2,1.345E2,-7.818315E-1,4E-1,1.15E2,3.1044868E1,6.234898E-1,1.103965E-2,2.4850313E-2,2.11E2,1.7537627E-2,1.00965295E-2,1.96E2,8.8E1,-7.5549236E-3,-1.7023318E-3,1.21E2,2.8676355E1,-1.5281272E-3,1.1335714E2,1E0,3.0930553E1,4.1E0,1.76E2,2.41E2,1.9E1,1.16316666E2,2.532762E1,3.2E0,2.886009E1,1.9471428E2,2.4580644E-2,1.4228736E-2,-2.3126168E-2,-1.3576129E-2,-1.2885562E-2,-5.037103E-3,-1.69493E-2,-8.377093E-3,7.2528236E-3,-1.4393763E-3,2.788062E-3,-7.439272E-3,-1.2359329E-2,-4.4982904E-3,-3.4419429E-3,1.9055441E-3,-4.4388357E-3,-7.858548E-5,1.0180556E-3,9.937123E-3,-1.0245397E-2,-5.971453E-4,-2.2077388E-3,5.5106E-3,-7.5675338E-3,1.8762302E-3,4.741753E-3,1.0254743E-2,1.5210183E-3,7.880817E-3,1.3136248E-2,4.4575925E-3],"split_indices":[38,19,16,24,6,6,21,38,10,35,0,60,47,3,10,52,63,48,20,10,39,66,21,0,0,51,0,0,37,39,0,0,40,50,0,57,3,66,10,35,67,2,65,70,10,54,57,0,0,0,0,0,0,0,0,0,0,0,0,0,0,0,0,0,0,0,0,0,0,0,0,0,0,0,0,0,0,0,0],"split_type":[0,0,0,0,0,0,0,0,0,0,0,0,0,0,0,0,0,0,0,0,0,0,0,0,0,0,0,0,0,0,0,0,0,0,0,0,0,0,0,0,0,0,0,0,0,0,0,0,0,0,0,0,0,0,0,0,0,0,0,0,0,0,0,0,0,0,0,0,0,0,0,0,0,0,0,0,0,0,0],"sum_hessian":[7.14E2,3.72E2,3.42E2,2.73E2,9.9E1,2.43E2,9.9E1,1.13E2,1.6E2,9.4E1,5E0,2.33E2,1E1,5.2E1,4.7E1,4.2E1,7.1E1,3E1,1.3E2,6.1E1,3.3E1,4.2E1,1.91E2,5E0,5E0,4.2E1,1E1,5E0,4.2E1,3.7E1,5E0,6E0,6.5E1,2.5E1,5E0,1.6E1,1.14E2,1E1,5.1E1,1.2E1,2.1E1,2.4E1,1.8E1,7.7E1,1.14E2,1.1E1,3.1E1,3.4E1,8E0,1.9E1,1.8E1,5.4E1,1.1E1,1.7E1,8E0,5E0,1.1E1,1E1,1.04E2,5E0,5E0,4.3E1,8E0,6E0,6E0,1E1,1.1E1,1.6E1,8E0,1.3E1,5E0,9E0,6.8E1,8.4E1,3E1,5E0,6E0,2.6E1,5E0],"tree_param":{"num_deleted":"0","num_feature":"87","num_nodes":"79","size_leaf_vector":"1"}},{"base_weights":[-1.2782045E-3,-1.1487034E-1,1.4683829E-1,-1.6635917E-1,1.2668702E-2,6.437337E-2,3.133748E-1,-9.5325224E-2,-2.261952E-1,-1.8171703E-2,1.9965524E-2,-6.373152E-2,9.437233E-2,1.5582332E-1,3.6878303E-1,-1.686443E-1,-4.673909E-2,-3.2371557E-1,-1.7666498E-1,-5.180401E-2,1.0033589E-1,-1.3469689E-1,1.6530031E-2,7.800917E-2,2.0378297E-2,1.8787132E-1,7.721102E-2,2.1668682E-2,2.8803125E-1,-2.0539682E-1,-0E0,1.6443035E-2,-1.0969049E-1,-3.9584324E-1,-2.2191176E-1,-0E0,-1.899703E-1,-1.2009816E-1,1.5689675E-3,-1.5692266E-3,1.4191413E-1,-1.7985018E-1,-0E0,-3.5438824E-2,6.2483954E-3,1.5117323E-1,4.4938378E-2,1.0851159E-2,3.5935908E-3,5.401682E-3,8.426619E-4,1.5796086E-2,5.454172E-3,-1.1482494E-2,-5.662558E-3,8.056997E-3,-9.700767E-4,9.7504276E-4,-6.6935094E-3,-2.171613E-2,-1.0203671E-2,-2.9987884E-3,-1.2805337E-2,-1.143277E-2,-5.492084E-3,-8.629586E-3,-8.967857E-4,-1.4824858E-3,2.8842648E-3,1.0005904E-3,8.84392E-3,-1.3705536E-2,-4.721264E-3,2.4252885E-3,-5.3233705E-3,-1.4779434E-3,9.979761E-3,8.837147E-3,1.5632816E-3],"categories":[],"categories_nodes":[],"categories_segments":[],"categories_sizes":[],"default_left":[0,0,0,0,0,0,0,0,0,0,0,0,0,0,0,0,0,0,0,0,0,0,0,0,0,0,0,0,0,0,0,0,0,0,0,0,0,0,0,0,0,0,0,0,0,0,0,0,0,0,0,0,0,0,0,0,0,0,0,0,0,0,0,0,0,0,0,0,0,0,0,0,0,0,0,0,0,0,0],"id":2,"left_children":[1,3,5,7,9,11,13,15,17,19,-1,21,23,25,27,29,31,33,35,37,39,41,43,45,-1,47,49,-1,51,53,-1,55,57,59,61,-1,63,65,67,-1,69,71,-1,73,-1,75,77,-1,-1,-1,-1,-1,-1,-1,-1,-1,-1,-1,-1,-1,-1,-1,-1,-1,-1,-1,-1,-1,-1,-1,-1,-1,-1,-1,-1,-1,-1,-1,-1],"loss_changes":[1.2144401E1,2.7033114E0,4.240614E0,1.1873989E0,1.4524243E0,8.1995463E-1,7.892275E-1,4.5505083E-1,6.511154E-1,4.3876982E-1,0E0,2.4187484E-1,8.011205E-1,3.204769E-2,1.9421959E-1,3.4889805E-1,3.4523028E-1,2.2486877E-1,2.3325801E-1,3.2916182E-1,1.4694774E-1,1.5073195E-1,1.2045407E-1,3.7282836E-1,0E0,1.9762993E-2,6.154828E-3,0E0,1.07702255E-1,3.8033485E-2,0E0,2.3513734E-1,1.4837122E-1,5.414343E-2,8.5929155E-2,0E0,2.4791265E-1,1.8700355E-1,9.035592E-2,0E0,5.7753623E-2,7.415074E-2,0E0,8.84725E-2,0E0,4.604739E-1,1.8272027E-1,0E0,0E0,0E0,0E0,0E0,0E0,0E0,0E0,0E0,0E0,0E0,0E0,0E0,0E0,0E0,0E0,0E0,0E0,0E0,0E0,0E0,0E0,0E0,0E0,0E0,0E0,0E0,0E0,0E0,0E0,0E0,0E0],"parents":[2147483647,0,0,1,1,2,2,3,3,4,4,5,5,6,6,7,7,8,8,9,9,11,11,12,12,13,13,14,14,15,15,16,16,17,17,18,18,19,19,20,20,21,21,22,22,23,23,25,25,26,26,28,28,29,29,31,31,32,32,33,33,34,34,36,36,37,37,38,38,40,40,41,41,43,43,45,45,46,46],"right_children":[2,4,6,8,10,12,14,16,18,20,-1,22,24,26,28,30,32,34,36,38,40,42,44,46,-1,48,50,-1,52,54,-1,56,58,60,62,-1,64,66,68,-1,70,72,-1,74,-1,76,78,-1,-1,-1,-1,-1,-1,-1,-1,-1,-1,-1,-1,-1,-1,-1,-1,-1,-1,-1,-1,-1,-1,-1,-1,-1,-1,-1,-1,-1,-1,-1,-1],"split_conditions":[1.32E2,1E0,1E0,7.309513E-2,1E0,1.1E2,-2.2252093E-1,-2.2252093E-1,9.1E1,6.234898E-1,1.9965524E-2,1.7E1,1E0,1.1E1,4.3388373E-1,-1.3301471E-1,4.3388373E-1,-2.2252093E-1,1.975191E1,1.6E0,2.4526903E1,2.51E2,7.4E1,1E0,2.0378297E-2,1.3E1,7.1E1,2.1668682E-2,1.9442857E2,2E0,-0E0,1.05E1,5E1,1.16E2,7.3711147E0,-0E0,4E0,1.3864285E2,1.3542857E2,-1.5692266E-3,1.1698333E2,2.6577667E1,-0E0,2.9506489E1,6.2483954E-3,1.27874176E2,-9.8046917E-1,1.0851159E-2,3.5935908E-3,5.401682E-3,8.426619E-4,1.5796086E-2,5.454172E-3,-1.1482494E-2,-5.662558E-3,8.056997E-3,-9.700767E-4,9.7504276E-4,-6.6935094E-3,-2.171613E-2,-1.0203671E-2,-2.9987884E-3,-1.2805337E-2,-1.143277E-2,-5.492084E-3,-8.629586E-3,-8.967857E-4,-1.4824858E-3,2.8842648E-3,1.0005904E-3,8.84392E-3,-1.3705536E-2,-4.721264E-3,2.4252885E-3,-5.3233705E-3,-1.4779434E-3,9.979761E-3,8.837147E-3,1.5632816E-3],"split_indices":[38,19,16,26,6,41,21,21,38,21,0,2,6,9,20,26,20,21,62,10,62,71,68,3,0,2,11,0,57,10,0,9,11,41,50,0,12,57,53,0,65,62,0,70,0,75,26,0,0,0,0,0,0,0,0,0,0,0,0,0,0,0,0,0,0,0,0,0,0,0,0,0,0,0,0,0,0,0,0],"split_type":[0,0,0,0,0,0,0,0,0,0,0,0,0,0,0,0,0,0,0,0,0,0,0,0,0,0,0,0,0,0,0,0,0,0,0,0,0,0,0,0,0,0,0,0,0,0,0,0,0,0,0,0,0,0,0,0,0,0,0,0,0,0,0,0,0,0,0,0,0,0,0,0,0,0,0,0,0,0,0],"sum_hessian":[7.2E2,4.08E2,3.12E2,2.91E2,1.17E2,2.1E2,1.02E2,1.35E2,1.56E2,1.09E2,8E0,3.9E1,1.71E2,2.8E1,7.4E1,5.2E1,8.3E1,5E1,1.06E2,8.6E1,2.3E1,2.1E1,1.8E1,1.64E2,7E0,1.8E1,1E1,3.8E1,3.6E1,4.3E1,9E0,4.1E1,4.2E1,2.7E1,2.3E1,8E0,9.8E1,3.8E1,4.8E1,5E0,1.8E1,1.6E1,5E0,1.2E1,6E0,4.9E1,1.15E2,1.3E1,5E0,5E0,5E0,3E1,6E0,3.2E1,1.1E1,8E0,3.3E1,6E0,3.6E1,2.1E1,6E0,5E0,1.8E1,6.4E1,3.4E1,2.4E1,1.4E1,3E1,1.8E1,5E0,1.3E1,6E0,1E1,5E0,7E0,1E1,3.9E1,9E0,1.06E2],"tree_param":{"num_deleted":"0","num_feature":"87","num_nodes":"79","size_leaf_vector":"1"}},{"base_weights":[-4.9164523E-3,-1.315475E-1,1.3772406E-1,-2.3862857E-1,-8.0131724E-2,5.864895E-2,3.258105E-1,-3.3224905E-1,-1.9684191E-1,-1.02378756E-1,9.07448E-2,-7.112532E-2,7.9363726E-2,2.4422708E-1,2.2039238E-2,-4.103012E-3,-3.6565167E-1,-8.1380054E-2,-2.1905538E-1,1.698552E-2,-1.2007212E-1,2.9260589E-2,1.1333863E-2,-2.7295768E-2,-8.936505E-3,6.6356555E-2,1.6468756E-2,2.0386705E-1,1.6084973E-2,-2.0454215E-2,-9.904612E-3,-0E0,-1.176894E-1,-2.2737792E-1,-3.4391594E-3,8.393068E-2,-8.767187E-2,-9.658652E-2,-1.9683981E-1,1.2246175E-1,-7.445538E-2,-5.429547E-3,1.6248193E-2,-6.1118543E-2,9.900866E-2,1.3820109E-2,1.5896723E-1,-9.879501E-4,-8.526563E-3,-1.1753439E-2,-5.5146585E-3,1.2254241E-2,3.603487E-4,-6.9702105E-3,-8.2598004E-4,-5.305005E-3,4.425069E-3,-1.1916216E-2,-4.7659143E-3,1.1424978E-2,7.56284E-4,-6.484266E-3,-0E0,-5.991455E-4,4.3334514E-3,-7.918736E-3,-1.6313944E-4,6.571126E-3,7.5892947E-4,3.6330937E-4,9.200744E-3],"categories":[],"categories_nodes":[],"categories_segments":[],"categories_sizes":[],"default_left":[0,0,0,0,0,0,0,0,0,0,0,0,0,0,0,0,0,0,0,0,0,0,0,0,0,0,0,0,0,0,0,0,0,0,0,0,0,0,0,0,0,0,0,0,0,0,0,0,0,0,0,0,0,0,0,0,0,0,0,0,0,0,0,0,0,0,0,0,0,0,0],"id":3,"left_children":[1,3,5,7,9,11,13,15,17,19,21,23,25,27,-1,-1,29,31,33,35,37,39,-1,41,-1,43,-1,45,-1,-1,-1,-1,47,49,-1,51,53,55,57,59,61,-1,63,65,67,-1,69,-1,-1,-1,-1,-1,-1,-1,-1,-1,-1,-1,-1,-1,-1,-1,-1,-1,-1,-1,-1,-1,-1,-1,-1],"loss_changes":[1.3456162E1,2.123736E0,5.1479797E0,3.7852573E-1,1.0330561E0,6.7315316E-1,7.899866E-1,2.3443079E-1,1.8552709E-1,5.1710534E-1,2.2686222E-1,1.34872E-1,6.37738E-1,7.884693E-2,0E0,0E0,9.1127396E-2,5.362343E-2,4.8542738E-2,2.241797E-1,3.2845902E-1,2.3624691E-1,0E0,1.0303643E-1,0E0,8.672804E-1,0E0,5.908096E-2,0E0,0E0,0E0,0E0,3.9699316E-2,2.571106E-3,0E0,2.2029138E-1,2.6275188E-2,2.9816782E-1,1.4186287E-1,1.20143086E-1,3.993003E-2,0E0,4.2304143E-2,2.1964633E-1,4.3169248E-1,0E0,9.732723E-2,0E0,0E0,0E0,0E0,0E0,0E0,0E0,0E0,0E0,0E0,0E0,0E0,0E0,0E0,0E0,0E0,0E0,0E0,0E0,0E0,0E0,0E0,0E0,0E0],"parents":[2147483647,0,0,1,1,2,2,3,3,4,4,5,5,6,6,7,7,8,8,9,9,10,10,11,11,12,12,13,13,16,16,17,17,18,18,19,19,20,20,21,21,23,23,25,25,27,27,32,32,33,33,35,35,36,36,37,37,38,38,39,39,40,40,42,42,43,43,44,44,46,46],"right_children":[2,4,6,8,10,12,14,16,18,20,22,24,26,28,-1,-1,30,32,34,36,38,40,-1,42,-1,44,-1,46,-1,-1,-1,-1,48,50,-1,52,54,56,58,60,62,-1,64,66,68,-1,70,-1,-1,-1,-1,-1,-1,-1,-1,-1,-1,-1,-1,-1,-1,-1,-1,-1,-1,-1,-1,-1,-1,-1,-1],"split_conditions":[1.27E2,8.7E1,1E0,-2.2252093E-1,1.56E2,-2.2252093E-1,6.234898E-1,7.8E1,1E0,-7.818315E-1,1.39E2,2E0,1E0,1.81E2,2.2039238E-2,-4.103012E-3,1.07666664E2,1.03E2,1.32E2,1.65E1,2E0,1.13E2,1.1333863E-2,1.09E2,-8.936505E-3,8.4E1,1.6468756E-2,1.7032819E2,1.6084973E-2,-2.0454215E-2,-9.904612E-3,-0E0,6.2E1,2.7E1,-3.4391594E-3,1.165E2,4.9E1,1.64E2,1.3E2,1.2857143E2,1E1,-5.429547E-3,1.32E1,2.19E2,4.3388373E-1,1.3820109E-2,1.7577658E2,-9.879501E-4,-8.526563E-3,-1.1753439E-2,-5.5146585E-3,1.2254241E-2,3.603487E-4,-6.9702105E-3,-8.2598004E-4,-5.305005E-3,4.425069E-3,-1.1916216E-2,-4.7659143E-3,1.1424978E-2,7.56284E-4,-6.484266E-3,-0E0,-5.991455E-4,4.3334514E-3,-7.918736E-3,-1.6313944E-4,6.571126E-3,7.5892947E-4,3.6330937E-4,9.200744E-3],"split_indices":[44,24,16,21,35,21,21,40,3,20,39,76,6,39,0,0,49,44,35,9,76,44,0,39,0,60,0,75,0,0,0,0,11,2,0,48,11,40,35,53,1,0,9,67,20,0,75,0,0,0,0,0,0,0,0,0,0,0,0,0,0,0,0,0,0,0,0,0,0,0,0],"split_type":[0,0,0,0,0,0,0,0,0,0,0,0,0,0,0,0,0,0,0,0,0,0,0,0,0,0,0,0,0,0,0,0,0,0,0,0,0,0,0,0,0,0,0,0,0,0,0,0,0,0,0,0,0,0,0,0,0,0,0,0,0,0,0,0,0,0,0,0,0,0,0],"sum_hessian":[7.43E2,3.94E2,3.49E2,1.26E2,2.68E2,2.47E2,1.02E2,3.6E1,9E1,2.38E2,3E1,3.3E1,2.14E2,6.2E1,4E1,5E0,3.1E1,1.6E1,7.4E1,3E1,2.08E2,2.2E1,8E0,2.5E1,8E0,2.05E2,9E0,4.4E1,1.8E1,2.3E1,8E0,5E0,1.1E1,6.9E1,5E0,1.9E1,1.1E1,1.62E2,4.6E1,1.2E1,1E1,9E0,1.6E1,4.1E1,1.64E2,1.4E1,3E1,5E0,6E0,6.3E1,6E0,5E0,1.4E1,5E0,6E0,1.55E2,7E0,3.1E1,1.5E1,5E0,7E0,5E0,5E0,1.1E1,5E0,1.4E1,2.7E1,1.17E2,4.7E1,5E0,2.5E1],"tree_param":{"num_deleted":"0","num_feature":"87","num_nodes":"71","size_leaf_vector":"1"}},{"base_weights":[9.9277626E-5,-1.2495875E-1,1.3316624E-1,-2.547107E-1,-6.75859E-2,5.7118215E-2,2.996045E-1,-3.7135184E-1,-1.9993107E-1,-8.4005535E-2,2.758935E-1,4.6998538E-2,1.9081654E-2,2.1771964E-1,3.8321963E-1,-1.0297253E-2,-2.0088846E-2,-6.864803E-2,-2.2721286E-1,-1.1577789E-1,-2.507259E-2,5.3655207E-3,2.0496245E-2,6.556443E-2,-9.234197E-2,4.4656442E-3,2.3704661E-1,2.3759657E-1,2.0880347E-2,3.314817E-4,-6.9522536E-3,-2.3972693E-1,-4.7009937E-3,-6.3024215E-2,-1.4910404E-1,-5.208206E-2,7.475709E-2,-5.5089366E-2,8.3169185E-2,-1.1361059E-2,-3.1800266E-2,4.648724E-3,2.487663E-1,4.266679E-3,1.5479714E-2,-1.3179031E-2,-7.970362E-3,2.1547258E-3,-4.992205E-3,-1.0476475E-2,-5.283789E-3,-4.31356E-3,1.5961509E-3,-5.2181125E-4,6.682811E-3,-4.833013E-3,1.384067E-3,1.3222549E-3,6.0434076E-3,-7.202872E-3,1.3737641E-3,1.3129522E-2,4.9238834E-3],"categories":[],"categories_nodes":[],"categories_segments":[],"categories_sizes":[],"default_left":[0,0,0,0,0,0,0,0,0,0,0,0,0,0,0,0,0,0,0,0,0,0,0,0,0,0,0,0,0,0,0,0,0,0,0,0,0,0,0,0,0,0,0,0,0,0,0,0,0,0,0,0,0,0,0,0,0,0,0,0,0,0,0],"id":4,"left_children":[1,3,5,7,9,11,13,15,17,19,21,23,-1,25,27,-1,-1,29,31,33,35,-1,-1,37,39,-1,41,43,-1,-1,-1,45,-1,47,49,51,53,55,57,-1,59,-1,61,-1,-1,-1,-1,-1,-1,-1,-1,-1,-1,-1,-1,-1,-1,-1,-1,-1,-1,-1,-1],"loss_changes":[1.2215381E1,2.7644782E0,4.453214E0,6.03426E-1,1.4928966E0,7.470609E-1,6.164675E-1,3.262186E-2,2.4492884E-1,4.5673895E-1,1.7543232E-1,6.2425214E-1,0E0,9.26137E-2,1.0065889E-1,0E0,0E0,9.895256E-2,5.4094076E-2,2.5595665E-1,2.4699357E-1,0E0,0E0,4.5981872E-1,1.9551502E-1,0E0,2.7121067E-2,7.660198E-2,0E0,0E0,0E0,2.8723717E-2,0E0,2.6785815E-1,2.0350647E-1,2.1784933E-1,1.0905528E-1,1.0247658E-1,3.819605E-1,0E0,1.5535244E-1,0E0,3.1526327E-2,0E0,0E0,0E0,0E0,0E0,0E0,0E0,0E0,0E0,0E0,0E0,0E0,0E0,0E0,0E0,0E0,0E0,0E0,0E0,0E0],"parents":[2147483647,0,0,1,1,2,2,3,3,4,4,5,5,6,6,7,7,8,8,9,9,10,10,11,11,13,13,14,14,17,17,18,18,19,19,20,20,23,23,24,24,26,26,27,27,31,31,33,33,34,34,35,35,36,36,37,37,38,38,40,40,42,42],"right_children":[2,4,6,8,10,12,14,16,18,20,22,24,-1,26,28,-1,-1,30,32,34,36,-1,-1,38,40,-1,42,44,-1,-1,-1,46,-1,48,50,52,54,56,58,-1,60,-1,62,-1,-1,-1,-1,-1,-1,-1,-1,-1,-1,-1,-1,-1,-1,-1,-1,-1,-1,-1,-1],"split_conditions":[1.27E2,8.7E1,1E0,-2.2252093E-1,1E0,1E0,6.234898E-1,9.35E1,1E0,1E0,1.1914286E2,7.829801E-1,1.9081654E-2,2.7534594E1,5E-1,-1.0297253E-2,-2.0088846E-2,9.714286E1,2.7E1,2.312706E1,6.234898E-1,5.3655207E-3,2.0496245E-2,1.1198333E2,1.15E2,4.4656442E-3,3.1728083E1,1.837061E2,2.0880347E-2,3.314817E-4,-6.9522536E-3,1.11E2,-4.7009937E-3,1.1153333E2,2.94975E1,3.5220837E1,2.9175274E1,7.1E1,6.234898E-1,-1.1361059E-2,6E0,4.648724E-3,1.64E2,4.266679E-3,1.5479714E-2,-1.3179031E-2,-7.970362E-3,2.1547258E-3,-4.992205E-3,-1.0476475E-2,-5.283789E-3,-4.31356E-3,1.5961509E-3,-5.2181125E-4,6.682811E-3,-4.833013E-3,1.384067E-3,1.3222549E-3,6.0434076E-3,-7.202872E-3,1.3737641E-3,1.3129522E-2,4.9238834E-3],"split_indices":[44,24,16,21,6,81,21,57,3,19,53,26,0,58,10,0,0,57,2,62,21,0,0,65,39,0,62,74,0,0,0,49,0,61,70,70,62,11,21,0,2,0,56,0,0,0,0,0,0,0,0,0,0,0,0,0,0,0,0,0,0,0,0],"split_type":[0,0,0,0,0,0,0,0,0,0,0,0,0,0,0,0,0,0,0,0,0,0,0,0,0,0,0,0,0,0,0,0,0,0,0,0,0,0,0,0,0,0,0,0,0,0,0,0,0,0,0,0,0,0,0,0,0,0,0,0,0,0,0],"sum_hessian":[7.32E2,3.77E2,3.55E2,1.14E2,2.63E2,2.45E2,1.1E2,3.4E1,8E1,2.52E2,1.1E1,2.39E2,6E0,5.8E1,5.2E1,7E0,2.7E1,1.5E1,6.5E1,1.62E2,9E1,6E0,5E0,2.12E2,2.7E1,9E0,4.9E1,1.2E1,4E1,7E0,8E0,5.8E1,7E0,6.5E1,9.7E1,7.2E1,1.8E1,2.6E1,1.86E2,7E0,2E1,5E0,4.4E1,5E0,7E0,4.2E1,1.6E1,1.6E1,4.9E1,3.8E1,5.9E1,5.2E1,2E1,7E0,1.1E1,1.8E1,8E0,7.6E1,1.1E2,7E0,1.3E1,3.9E1,5E0],"tree_param":{"num_deleted":"0","num_feature":"87","num_nodes":"63","size_leaf_vector":"1"}},{"base_weights":[-3.1038101E-3,-1.3062368E-1,1.1254869E-1,-2.4436513E-1,-9.0142116E-2,2.3275787E-1,1.7373258E-2,-3.4715688E-1,-1.9780181E-1,-1.031776E-1,1.0174313E-1,9.8575585E-2,2.898908E-1,-8.934414E-2,4.2592913E-2,-7.3282714E-3,-2.025178E-2,-1.511179E-1,-2.6176035E-1,-1.1666565E-1,-4.667897E-4,-1.2788834E-3,1.82607E-1,4.125024E-2,1.7553744E-1,2.2006997E-1,3.7059313E-1,-1.3375552E-1,-2.3280064E-2,6.256289E-2,-1.1629354E-1,-1.7609504E-1,-5.5628292E-2,-1.5139489E-2,-8.459694E-3,-1.5078858E-1,-7.045913E-2,-8.254284E-2,8.591718E-2,1.4527681E-2,1.3779593E-3,9.632607E-3,-0E0,4.926789E-2,1.3416153E-2,2.860041E-1,1.8014486E-1,9.62227E-3,3.86769E-1,-1.7421415E-1,-0E0,-8.4362715E-2,2.1426037E-3,8.096894E-2,-4.784625E-2,-1.7047656E-1,1.0939789E-3,-9.9907825E-3,-3.3728115E-3,-6.979087E-3,1.0464939E-3,-1.9339971E-3,-8.604622E-3,-1.6856308E-3,-5.584152E-3,-7.1046324E-3,-0E0,8.485933E-3,8.522291E-4,-4.174482E-3,1.1673426E-3,6.0329153E-3,-6.833585E-4,1.6721362E-2,8.980565E-3,3.5132132E-3,9.775064E-3,2.1327006E-2,1.4163612E-2,-1.0740441E-2,-2.9825305E-3,-4.970503E-4,-6.402865E-3,-2.3458628E-3,4.596824E-3,-9.039603E-3,1.4222158E-3,-1.2087512E-2,-4.2494265E-3],"categories":[],"categories_nodes":[],"categories_segments":[],"categories_sizes":[],"default_left":[0,0,0,0,0,0,0,0,0,0,0,0,0,0,0,0,0,0,0,0,0,0,0,0,0,0,0,0,0,0,0,0,0,0,0,0,0,0,0,0,0,0,0,0,0,0,0,0,0,0,0,0,0,0,0,0,0,0,0,0,0,0,0,0,0,0,0,0,0,0,0,0,0,0,0,0,0,0,0,0,0,0,0,0,0,0,0,0,0],"id":5,"left_children":[1,3,5,7,9,11,13,15,17,19,21,23,25,27,29,-1,-1,31,33,35,37,-1,39,41,43,45,47,49,51,53,55,57,59,-1,-1,61,63,65,67,-1,-1,-1,69,71,-1,73,75,-1,77,79,-1,81,-1,83,85,87,-1,-1,-1,-1,-1,-1,-1,-1,-1,-1,-1,-1,-1,-1,-1,-1,-1,-1,-1,-1,-1,-1,-1,-1,-1,-1,-1,-1,-1,-1,-1,-1,-1],"loss_changes":[1.1121747E1,1.5975127E0,4.490123E0,3.219633E-1,6.784928E-1,1.2665005E0,5.9661573E-1,1.9894528E-1,1.1920643E-1,3.3595967E-1,1.9539964E-1,2.093209E-1,5.4117584E-1,1.0441047E-1,5.7620823E-1,0E0,0E0,6.720418E-2,3.181696E-4,3.1570196E-1,2.2654611E-1,0E0,1.4428714E-1,2.0365173E-1,2.127732E-1,8.0868006E-2,2.3258686E-2,1.4728794E-1,8.451717E-2,3.3640206E-1,1.6832235E-1,4.225731E-2,8.5487165E-2,0E0,0E0,2.708094E-1,1.2863427E-1,8.6076766E-2,6.500526E-2,0E0,0E0,0E0,5.381478E-2,6.1770726E-2,0E0,7.022381E-3,3.7305713E-2,0E0,5.768299E-3,4.8103273E-2,0E0,2.0697236E-2,0E0,2.0517892E-1,2.5365505E-1,3.817579E-2,0E0,0E0,0E0,0E0,0E0,0E0,0E0,0E0,0E0,0E0,0E0,0E0,0E0,0E0,0E0,0E0,0E0,0E0,0E0,0E0,0E0,0E0,0E0,0E0,0E0,0E0,0E0,0E0,0E0,0E0,0E0,0E0,0E0],"parents":[2147483647,0,0,1,1,2,2,3,3,4,4,5,5,6,6,7,7,8,8,9,9,10,10,11,11,12,12,13,13,14,14,17,17,18,18,19,19,20,20,22,22,23,23,24,24,25,25,26,26,27,27,28,28,29,29,30,30,31,31,32,32,35,35,36,36,37,37,38,38,42,42,43,43,45,45,46,46,48,48,49,49,51,51,53,53,54,54,55,55],"right_children":[2,4,6,8,10,12,14,16,18,20,22,24,26,28,30,-1,-1,32,34,36,38,-1,40,42,44,46,48,50,52,54,56,58,60,-1,-1,62,64,66,68,-1,-1,-1,70,72,-1,74,76,-1,78,80,-1,82,-1,84,86,88,-1,-1,-1,-1,-1,-1,-1,-1,-1,-1,-1,-1,-1,-1,-1,-1,-1,-1,-1,-1,-1,-1,-1,-1,-1,-1,-1,-1,-1,-1,-1,-1,-1],"split_conditions":[1.23E2,6.9E1,-7.086267E-1,-2.2252093E-1,1E0,1.8E2,-2.2252093E-1,8E1,2.31E1,4.1E0,6.8E1,1.45E2,6.234898E-1,2.2E0,9.749279E-1,-7.3282714E-3,-2.025178E-2,3.0476534E1,2.19E2,2.62E2,1.1E2,-1.2788834E-3,1.92E2,5.3E1,1.26E2,1.8092711E2,1.6E2,7.8E1,8.5E1,3E0,9.4E1,1.06E2,4E0,-1.5139489E-2,-8.459694E-3,1.43E2,3.5342728E1,1.06E2,2E0,1.4527681E-2,1.3779593E-3,9.632607E-3,1.04E2,1.2E0,1.3416153E-2,2.82E2,3.2545353E1,9.62227E-3,4.3388373E-1,1.7E1,-0E0,2.23E2,2.1426037E-3,6.2E1,8.5E1,1.3560826E2,1.0939789E-3,-9.9907825E-3,-3.3728115E-3,-6.979087E-3,1.0464939E-3,-1.9339971E-3,-8.604622E-3,-1.6856308E-3,-5.584152E-3,-7.1046324E-3,-0E0,8.485933E-3,8.522291E-4,-4.174482E-3,1.1673426E-3,6.0329153E-3,-6.833585E-4,1.6721362E-2,8.980565E-3,3.5132132E-3,9.775064E-3,2.1327006E-2,1.4163612E-2,-1.0740441E-2,-2.9825305E-3,-4.970503E-4,-6.402865E-3,-2.3458628E-3,4.596824E-3,-9.039603E-3,1.4222158E-3,-1.2087512E-2,-4.2494265E-3],"split_indices":[38,24,26,21,7,24,21,41,9,10,68,38,21,10,20,0,0,70,63,71,38,0,35,11,40,74,38,11,68,76,68,40,4,0,0,59,66,39,12,0,0,0,39,10,0,63,62,0,20,2,0,67,0,68,68,75,0,0,0,0,0,0,0,0,0,0,0,0,0,0,0,0,0,0,0,0,0,0,0,0,0,0,0,0,0,0,0,0,0],"split_type":[0,0,0,0,0,0,0,0,0,0,0,0,0,0,0,0,0,0,0,0,0,0,0,0,0,0,0,0,0,0,0,0,0,0,0,0,0,0,0,0,0,0,0,0,0,0,0,0,0,0,0,0,0,0,0,0,0,0,0,0,0,0,0,0,0,0,0,0,0,0,0,0,0,0,0,0,0,0,0,0,0,0,0,0,0,0,0,0,0],"sum_hessian":[7.52E2,3.58E2,3.94E2,9.2E1,2.66E2,1.73E2,2.21E2,2.6E1,6.6E1,2.5E2,1.6E1,5.3E1,1.2E2,4.1E1,1.8E2,7E0,1.9E1,4.1E1,2.5E1,2.2E2,3E1,6E0,1E1,3.2E1,2.1E1,6.7E1,5.3E1,2.3E1,1.8E1,1.61E2,1.9E1,3.1E1,1E1,1.5E1,1E1,1.24E2,9.6E1,1.6E1,1.4E1,5E0,5E0,6E0,2.6E1,1E1,1.1E1,2.2E1,4.5E1,6E0,4.7E1,1.8E1,5E0,1E1,8E0,1.39E2,2.2E1,1.4E1,5E0,2.4E1,7E0,5E0,5E0,2.1E1,1.03E2,5.3E1,4.3E1,9E0,7E0,5E0,9E0,5E0,2.1E1,5E0,5E0,1.3E1,9E0,7E0,3.8E1,3.1E1,1.6E1,1.2E1,6E0,5E0,5E0,1E1,1.29E2,8E0,1.4E1,6E0,8E0],"tree_param":{"num_deleted":"0","num_feature":"87","num_nodes":"89","size_leaf_vector":"1"}},{"base_weights":[2.2764283E-3,-1.0261792E-1,1.4200094E-1,-1.2449472E-1,8.289719E-2,2.4282861E-1,4.5903377E-2,-2.0676194E-1,-8.426219E-2,3.400904E-2,1.610809E-2,1.5476945E-1,2.915426E-1,-1.6974974E-2,9.148048E-2,-1.3558045E-1,-2.390049E-1,-6.0278393E-2,-1.7843086E-1,-3.3347823E-2,1.4617941E-1,1.631343E-2,1.3008168E-1,2.0865388E-1,3.4052736E-1,-1.1544713E-1,3.045621E-2,7.072754E-2,1.6399244E-2,-6.5229936E-3,-1.7377567E-1,-3.0023733E-1,-1.7261675E-1,-8.055097E-2,8.9306915E-3,3.817449E-4,-2.0624971E-1,-9.886154E-2,3.2071024E-2,2.512994E-3,1.0566327E-2,7.033817E-2,2.3346731E-1,3.7675481E-3,2.3739816E-1,7.3574223E-3,1.832625E-2,-0E0,-1.5068494E-1,-2.9265448E-2,7.3465325E-2,-7.885155E-2,1.0596202E-1,6.8351584E-3,-8.266433E-3,-5.7081523E-4,-1.0824407E-2,-1.7061345E-2,-8.391302E-3,-0E0,-9.678516E-3,-4.6874555E-3,-0E0,6.3625225E-3,-8.347924E-4,-5.986327E-4,-1.1998927E-2,-1.4899656E-3,-6.975749E-3,-0E0,3.7188323E-3,-0E0,6.024749E-3,6.3981945E-3,1.3994093E-2,1.3086319E-2,6.111937E-3,-8.799072E-3,-2.7047507E-3,8.803283E-4,-3.7022848E-3,6.5615475E-3,-0E0,-5.4264106E-3,-0E0,3.065371E-3,9.801194E-3],"categories":[],"categories_nodes":[],"categories_segments":[],"categories_sizes":[],"default_left":[0,0,0,0,0,0,0,0,0,0,0,0,0,0,0,0,0,0,0,0,0,0,0,0,0,0,0,0,0,0,0,0,0,0,0,0,0,0,0,0,0,0,0,0,0,0,0,0,0,0,0,0,0,0,0,0,0,0,0,0,0,0,0,0,0,0,0,0,0,0,0,0,0,0,0,0,0,0,0,0,0,0,0,0,0,0,0],"id":6,"left_children":[1,3,5,7,9,11,13,15,17,19,-1,21,23,25,27,29,31,33,35,37,39,-1,41,43,45,47,49,51,-1,53,55,57,59,61,63,-1,65,67,69,-1,-1,71,73,-1,75,-1,-1,-1,77,79,81,83,85,-1,-1,-1,-1,-1,-1,-1,-1,-1,-1,-1,-1,-1,-1,-1,-1,-1,-1,-1,-1,-1,-1,-1,-1,-1,-1,-1,-1,-1,-1,-1,-1,-1,-1],"loss_changes":[1.0688305E1,1.702806E0,2.9927297E0,1.1880374E0,4.6810344E-1,5.6228256E-1,4.732651E-1,2.0784473E-1,5.3677976E-1,3.032648E-1,0E0,1.5325749E-1,2.638178E-1,3.2961938E-1,4.032064E-1,1.8294102E-1,2.3016214E-1,2.941028E-1,2.8024292E-1,1.12709604E-1,5.695337E-2,0E0,2.7438205E-1,1.00272894E-1,1.8628788E-1,1.0216221E-1,1.2472446E-1,4.8012674E-1,0E0,2.7565983E-1,1.8971592E-1,1.0892701E-1,1.3491523E-1,1.6362488E-1,1.526578E-1,0E0,2.6025212E-1,1.541014E-2,2.0848703E-2,0E0,0E0,1.317388E-1,1.1544764E-2,0E0,1.6460896E-2,0E0,0E0,0E0,1.1453629E-2,4.6827465E-2,1.0720314E-1,3.564182E-2,2.5583154E-1,0E0,0E0,0E0,0E0,0E0,0E0,0E0,0E0,0E0,0E0,0E0,0E0,0E0,0E0,0E0,0E0,0E0,0E0,0E0,0E0,0E0,0E0,0E0,0E0,0E0,0E0,0E0,0E0,0E0,0E0,0E0,0E0,0E0,0E0],"parents":[2147483647,0,0,1,1,2,2,3,3,4,4,5,5,6,6,7,7,8,8,9,9,11,11,12,12,13,13,14,14,15,15,16,16,17,17,18,18,19,19,20,20,22,22,23,23,24,24,25,25,26,26,27,27,29,29,30,30,31,31,32,32,33,33,34,34,36,36,37,37,38,38,41,41,42,42,44,44,48,48,49,49,50,50,51,51,52,52],"right_children":[2,4,6,8,10,12,14,16,18,20,-1,22,24,26,28,30,32,34,36,38,40,-1,42,44,46,48,50,52,-1,54,56,58,60,62,64,-1,66,68,70,-1,-1,72,74,-1,76,-1,-1,-1,78,80,82,84,86,-1,-1,-1,-1,-1,-1,-1,-1,-1,-1,-1,-1,-1,-1,-1,-1,-1,-1,-1,-1,-1,-1,-1,-1,-1,-1,-1,-1,-1,-1,-1,-1,-1,-1],"split_conditions":[1.32E2,1.58E2,-7.206671E-1,1.0375E2,1E0,1.48E2,6.234898E-1,5.8E1,9.158643E-1,1E0,1.610809E-2,1.1905E2,6.234898E-1,1.383E2,1E0,1.23423395E1,2.33E2,3.1E0,1E0,1.29E2,1.2E2,1.631343E-2,1E0,2.7534594E1,1.55E2,1.0573333E2,2.2575392E1,1.25166664E2,1.6399244E-2,1.06E2,4.6472317E-1,2E0,9.3333336E1,1.54E2,9.609023E0,3.817449E-4,-7.818315E-1,2.29E2,1.3391667E2,2.512994E-3,1.0566327E-2,1.5E2,5E-1,3.7675481E-3,2.0033333E2,7.3574223E-3,1.832625E-2,-0E0,1.3620277E2,1.39E2,1.4457143E2,1.2E2,2.7E0,6.8351584E-3,-8.266433E-3,-5.7081523E-4,-1.0824407E-2,-1.7061345E-2,-8.391302E-3,-0E0,-9.678516E-3,-4.6874555E-3,-0E0,6.3625225E-3,-8.347924E-4,-5.986327E-4,-1.1998927E-2,-1.4899656E-3,-6.975749E-3,-0E0,3.7188323E-3,-0E0,6.024749E-3,6.3981945E-3,1.3994093E-2,1.3086319E-2,6.111937E-3,-8.799072E-3,-2.7047507E-3,8.803283E-4,-3.7022848E-3,6.5615475E-3,-0E0,-5.4264106E-3,-0E0,3.065371E-3,9.801194E-3],"split_indices":[38,35,26,48,6,39,21,11,26,15,0,65,21,69,6,50,67,10,3,37,38,0,8,58,38,65,58,61,0,43,27,5,49,40,50,0,20,67,65,0,0,38,10,0,49,0,0,0,75,38,53,47,10,0,0,0,0,0,0,0,0,0,0,0,0,0,0,0,0,0,0,0,0,0,0,0,0,0,0,0,0,0,0,0,0,0,0],"split_type":[0,0,0,0,0,0,0,0,0,0,0,0,0,0,0,0,0,0,0,0,0,0,0,0,0,0,0,0,0,0,0,0,0,0,0,0,0,0,0,0,0,0,0,0,0,0,0,0,0,0,0,0,0,0,0,0,0,0,0,0,0,0,0,0,0,0,0,0,0,0,0,0,0,0,0,0,0,0,0,0,0,0,0,0,0,0,0],"sum_hessian":[7.27E2,4.15E2,3.12E2,3.72E2,4.3E1,1.51E2,1.61E2,1.2E2,2.52E2,3.7E1,6E0,5.6E1,9.5E1,6.7E1,9.4E1,4E1,8E1,2.03E2,4.9E1,2.3E1,1.4E1,5E0,5.1E1,3.8E1,5.7E1,2.2E1,4.5E1,8.8E1,6E0,1E1,3E1,3.9E1,4.1E1,1.58E2,4.5E1,6E0,4.3E1,1.2E1,1.1E1,7E0,7E0,3.4E1,1.7E1,8E0,3E1,8E0,4.9E1,5E0,1.7E1,1.8E1,2.7E1,1.6E1,7.2E1,5E0,5E0,7E0,2.3E1,2.8E1,1.1E1,5E0,3.6E1,1.35E2,2.3E1,8E0,3.7E1,7E0,3.6E1,6E0,6E0,6E0,5E0,1.4E1,2E1,7E0,1E1,2.3E1,7E0,1.2E1,5E0,8E0,1E1,1.4E1,1.3E1,1.1E1,5E0,5E1,2.2E1],"tree_param":{"num_deleted":"0","num_feature":"87","num_nodes":"87","size_leaf_vector":"1"}},{"base_weights":[-2.5205254E-3,-1.0874426E-1,1.272277E-1,-2.2897594E-1,-6.650892E-2,5.8967777E-2,2.5013703E-1,-1.5958007E-2,-1.830724E-1,-9.0763435E-2,1.2368865E-1,-1.8603237E-2,1.0254749E-1,1.88146E-1,3.1955746E-1,-0E0,-1.9680586E-1,-1.0544615E-1,-0E0,6.5189496E-2,1.6286489E-2,-1.4190026E-1,1.4423854E-2,8.6555764E-2,1.8758519E-2,2.4426111E-3,2.0508455E-1,3.426784E-1,7.866758E-3,-6.79394E-2,-2.1646771E-1,-1.13152765E-1,5.502825E-3,-9.216654E-2,3.247749E-2,9.063916E-3,7.765457E-3,-1.348039E-3,-1.0483091E-2,5.4642264E-2,-7.9133585E-2,-4.7699116E-2,1.1474946E-1,1.13152275E-2,5.4081343E-3,1.8157663E-2,8.268223E-3,-5.7490896E-3,-0E0,-7.5466908E-3,-1.1902314E-2,-7.370672E-4,-6.2499475E-3,-6.717482E-3,-8.9778425E-4,-9.190906E-5,6.764295E-3,5.062003E-3,-1.1972355E-3,-0E0,7.0488392E-3,-5.6759217E-3,-0E0,2.4064202E-3,-5.994156E-3,4.9373675E-3,1.1443554E-2],"categories":[],"categories_nodes":[],"categories_segments":[],"categories_sizes":[],"default_left":[0,0,0,0,0,0,0,0,0,0,0,0,0,0,0,0,0,0,0,0,0,0,0,0,0,0,0,0,0,0,0,0,0,0,0,0,0,0,0,0,0,0,0,0,0,0,0,0,0,0,0,0,0,0,0,0,0,0,0,0,0,0,0,0,0,0,0],"id":7,"left_children":[1,3,5,7,9,11,13,-1,15,17,19,21,23,25,27,-1,29,31,33,35,-1,37,39,41,-1,-1,43,45,-1,47,49,51,-1,53,55,57,-1,-1,-1,59,61,63,65,-1,-1,-1,-1,-1,-1,-1,-1,-1,-1,-1,-1,-1,-1,-1,-1,-1,-1,-1,-1,-1,-1,-1,-1],"loss_changes":[1.0114444E1,2.0067453E0,2.7229667E0,3.2188368E-1,1.3964918E0,7.3373383E-1,3.9260912E-1,0E0,1.8196416E-1,3.4956074E-1,3.4152788E-1,3.283493E-1,5.229943E-1,1.1795092E-1,9.4872475E-2,0E0,1.2661433E-1,3.9474583E-1,1.24030225E-1,1.23779476E-1,0E0,1.0308921E-1,2.3140152E-1,5.1181716E-1,0E0,0E0,5.9306383E-2,5.0466537E-2,0E0,2.8551493E-2,5.777836E-3,2.441566E-1,0E0,1.6792014E-2,1.15903705E-1,6.796326E-2,0E0,0E0,0E0,2.0649153E-1,4.1918963E-2,1.7204121E-1,1.455183E-1,0E0,0E0,0E0,0E0,0E0,0E0,0E0,0E0,0E0,0E0,0E0,0E0,0E0,0E0,0E0,0E0,0E0,0E0,0E0,0E0,0E0,0E0,0E0,0E0],"parents":[2147483647,0,0,1,1,2,2,3,3,4,4,5,5,6,6,8,8,9,9,10,10,11,11,12,12,13,13,14,14,16,16,17,17,18,18,19,19,21,21,22,22,23,23,26,26,27,27,29,29,30,30,31,31,33,33,34,34,35,35,39,39,40,40,41,41,42,42],"right_children":[2,4,6,8,10,12,14,-1,16,18,20,22,24,26,28,-1,30,32,34,36,-1,38,40,42,-1,-1,44,46,-1,48,50,52,-1,54,56,58,-1,-1,-1,60,62,64,66,-1,-1,-1,-1,-1,-1,-1,-1,-1,-1,-1,-1,-1,-1,-1,-1,-1,-1,-1,-1,-1,-1,-1,-1],"split_conditions":[1.3E2,6.9E1,1E0,-2.2252093E-1,1.58E2,6.234898E-1,6.234898E-1,-1.5958007E-2,8.3333336E1,1.345E2,1E0,1.06E2,1E0,2.7534594E1,1E0,-0E0,1E0,1E0,7E0,1E0,1.6286489E-2,1.17E2,1.87E2,8.4E1,1.8758519E-2,2.4426111E-3,1.54E2,1.94E2,7.866758E-3,2.9147583E1,1.02E2,-8.653073E-1,5.502825E-3,1.12E2,1.24E2,5.1E1,7.765457E-3,-1.348039E-3,-1.0483091E-2,2.3696802E1,1.49E2,-2.5119007E-1,1E0,1.13152275E-2,5.4081343E-3,1.8157663E-2,8.268223E-3,-5.7490896E-3,-0E0,-7.5466908E-3,-1.1902314E-2,-7.370672E-4,-6.2499475E-3,-6.717482E-3,-8.9778425E-4,-9.190906E-5,6.764295E-3,5.062003E-3,-1.1972355E-3,-0E0,7.0488392E-3,-5.6759217E-3,-0E0,2.4064202E-3,-5.994156E-3,4.9373675E-3,1.1443554E-2],"split_indices":[38,24,16,21,35,21,21,0,49,48,6,41,81,58,80,0,3,6,2,15,0,49,55,60,0,0,56,52,0,62,42,26,0,43,38,11,0,0,0,58,39,26,79,0,0,0,0,0,0,0,0,0,0,0,0,0,0,0,0,0,0,0,0,0,0,0,0],"split_type":[0,0,0,0,0,0,0,0,0,0,0,0,0,0,0,0,0,0,0,0,0,0,0,0,0,0,0,0,0,0,0,0,0,0,0,0,0,0,0,0,0,0,0,0,0,0,0,0,0,0,0,0,0,0,0,0,0,0,0,0,0,0,0,0,0,0,0],"sum_hessian":[7.32E2,4.03E2,3.29E2,1.03E2,3E2,2.13E2,1.16E2,3.2E1,7.1E1,2.67E2,3.3E1,7.6E1,1.37E2,6.4E1,5.2E1,5E0,6.6E1,2.29E2,3.8E1,2.7E1,6E0,1.6E1,6E1,1.31E2,6E0,8E0,5.6E1,4.4E1,8E0,1E1,5.6E1,2.22E2,7E0,1E1,2.8E1,1.8E1,9E0,7E0,9E0,4.3E1,1.7E1,2.2E1,1.09E2,4.4E1,1.2E1,3.8E1,6E0,5E0,5E0,1.7E1,3.9E1,2.5E1,1.97E2,5E0,5E0,2.1E1,7E0,5E0,1.3E1,2.7E1,1.6E1,1.1E1,6E0,9E0,1.3E1,9.8E1,1.1E1],"tree_param":{"num_deleted":"0","num_feature":"87","num_nodes":"67","size_leaf_vector":"1"}},{"base_weights":[6.0179117E-3,-1.0207267E-1,1.1524505E-1,-1.64931E-1,-5.099201E-2,4.8764434E-2,2.548331E-1,-2.4097286E-1,-1.2486584E-1,-6.2403042E-2,1.3483326E-2,3.5375565E-2,3.0414477E-1,2.9449666E-1,1.865223E-1,-1.4816172E-2,-1.8880454E-1,5.624862E-4,-1.3796672E-1,-1.2297247E-1,-1.5168753E-2,7.919592E-2,-5.711681E-2,6.6765384E-3,1.963252E-2,5.3975657E-3,3.1456557E-1,2.2779282E-3,2.07552E-1,-2.1215397E-1,-5.3110193E-3,-3.1990778E-2,-1.5332663E-1,-2.0427208E-1,-6.507702E-2,-3.606557E-2,8.089442E-2,1.5601042E-1,5.559176E-2,-1.0081705E-1,5.217092E-2,2.0923078E-1,3.4323487E-1,1.1021216E-2,4.06024E-3,-1.2493455E-2,-3.7983344E-3,1.9782973E-3,-4.0862868E-3,-1.9386391E-3,-8.566617E-3,-1.135581E-2,-3.3082345E-3,5.4115606E-3,-4.373406E-3,8.6789747E-4,-3.2956076E-3,6.4393873E-3,-0E0,-0E0,9.007039E-3,5.992212E-3,1.0828156E-3,-7.3449123E-3,-9.1890077E-4,-2.1663737E-3,4.434486E-3,4.6954206E-3,1.352828E-2,7.24916E-3,1.8029505E-2],"categories":[],"categories_nodes":[],"categories_segments":[],"categories_sizes":[],"default_left":[0,0,0,0,0,0,0,0,0,0,0,0,0,0,0,0,0,0,0,0,0,0,0,0,0,0,0,0,0,0,0,0,0,0,0,0,0,0,0,0,0,0,0,0,0,0,0,0,0,0,0,0,0,0,0,0,0,0,0,0,0,0,0,0,0,0,0,0,0,0,0],"id":8,"left_children":[1,3,5,7,9,11,13,15,17,19,-1,21,23,25,27,-1,29,-1,31,33,35,37,39,-1,-1,-1,41,-1,43,45,-1,47,49,51,53,55,57,59,61,63,65,67,69,-1,-1,-1,-1,-1,-1,-1,-1,-1,-1,-1,-1,-1,-1,-1,-1,-1,-1,-1,-1,-1,-1,-1,-1,-1,-1,-1,-1],"loss_changes":[8.726223E0,1.1612215E0,3.3722162E0,4.3602037E-1,7.5352407E-1,8.135214E-1,2.1668339E-1,5.4355145E-2,2.1216273E-1,5.5937237E-1,0E0,9.79463E-1,7.615459E-2,1.9334126E-1,1.0456109E-1,0E0,7.332802E-3,0E0,1.4259684E-1,3.6926997E-1,2.2928733E-1,2.675221E-1,3.778686E-1,0E0,0E0,0E0,6.621027E-2,0E0,1.6992807E-2,6.657004E-2,0E0,6.083259E-2,1.5385723E-1,6.6067934E-2,2.1306017E-1,1.590724E-1,6.815727E-2,1.3786995E-1,2.6235038E-1,1.9351053E-1,8.5103616E-2,5.838996E-2,6.2316895E-2,0E0,0E0,0E0,0E0,0E0,0E0,0E0,0E0,0E0,0E0,0E0,0E0,0E0,0E0,0E0,0E0,0E0,0E0,0E0,0E0,0E0,0E0,0E0,0E0,0E0,0E0,0E0,0E0],"parents":[2147483647,0,0,1,1,2,2,3,3,4,4,5,5,6,6,7,7,8,8,9,9,11,11,12,12,13,13,14,14,16,16,18,18,19,19,20,20,21,21,22,22,26,26,28,28,29,29,31,31,32,32,33,33,34,34,35,35,36,36,37,37,38,38,39,39,40,40,41,41,42,42],"right_children":[2,4,6,8,10,12,14,16,18,20,-1,22,24,26,28,-1,30,-1,32,34,36,38,40,-1,-1,-1,42,-1,44,46,-1,48,50,52,54,56,58,60,62,64,66,68,70,-1,-1,-1,-1,-1,-1,-1,-1,-1,-1,-1,-1,-1,-1,-1,-1,-1,-1,-1,-1,-1,-1,-1,-1,-1,-1,-1,-1],"split_conditions":[1.26E2,1.1171429E2,1E0,9.1E1,1E0,1E0,1.96E2,9E1,9.6083336E1,6E0,1.3483326E-2,6.123234E-17,1.09E2,3E-1,3.2545353E1,-1.4816172E-2,2.6E0,5.624862E-4,1.9642466E1,9E-1,5E0,1E0,1.49E2,6.6765384E-3,1.963252E-2,5.3975657E-3,2.8487997E1,2.2779282E-3,2.9E0,1.0610847E2,-5.3110193E-3,8E1,1E0,1.36E2,1.114E2,1.38E2,1.6E0,9.8E1,1.08E2,3.1008879E1,2.2671162E1,3.4131996E1,1.29E2,1.1021216E-2,4.06024E-3,-1.2493455E-2,-3.7983344E-3,1.9782973E-3,-4.0862868E-3,-1.9386391E-3,-8.566617E-3,-1.135581E-2,-3.3082345E-3,5.4115606E-3,-4.373406E-3,8.6789747E-4,-3.2956076E-3,6.4393873E-3,-0E0,-0E0,9.007039E-3,5.992212E-3,1.0828156E-3,-7.3449123E-3,-9.1890077E-4,-2.1663737E-3,4.434486E-3,4.6954206E-3,1.352828E-2,7.24916E-3,1.8029505E-2],"split_indices":[38,53,16,38,6,6,37,39,65,1,0,23,40,10,62,0,10,0,62,10,3,3,40,0,0,0,58,0,10,73,0,56,3,40,61,42,10,43,52,62,62,62,40,0,0,0,0,0,0,0,0,0,0,0,0,0,0,0,0,0,0,0,0,0,0,0,0,0,0,0,0],"split_type":[0,0,0,0,0,0,0,0,0,0,0,0,0,0,0,0,0,0,0,0,0,0,0,0,0,0,0,0,0,0,0,0,0,0,0,0,0,0,0,0,0,0,0,0,0,0,0,0,0,0,0,0,0,0,0,0,0,0,0,0,0,0,0,0,0,0,0,0,0,0,0],"sum_hessian":[7.37E2,3.7E2,3.67E2,1.64E2,2.06E2,2.5E2,1.17E2,5.4E1,1.1E2,2E2,6E0,2.39E2,1.1E1,7.1E1,4.6E1,2.3E1,3.1E1,9E0,1.01E2,8.6E1,1.14E2,1.63E2,7.6E1,5E0,6E0,8E0,6.3E1,7E0,3.9E1,2.2E1,9E0,1.4E1,8.7E1,3.4E1,5.2E1,9.5E1,1.9E1,3.6E1,1.27E2,5.5E1,2.1E1,1.6E1,4.7E1,3.4E1,5E0,1.6E1,6E0,5E0,9E0,1.3E1,7.4E1,2.8E1,6E0,5E0,4.7E1,3.3E1,6.2E1,1.1E1,8E0,5E0,3.1E1,4.2E1,8.5E1,3.4E1,2.1E1,5E0,1.6E1,7E0,9E0,5E0,4.2E1],"tree_param":{"num_deleted":"0","num_feature":"87","num_nodes":"71","size_leaf_vector":"1"}},{"base_weights":[-4.1575455E-3,-9.982413E-2,1.09266974E-1,-1.5985745E-1,-2.9624544E-2,5.118854E-2,2.3449339E-1,-1.0419306E-1,-1.9246824E-1,-1.2930876E-1,-3.1541064E-3,2.7604995E-2,1.9035617E-2,1.7445599E-1,2.9750642E-1,1.1564548E-3,-1.1771818E-1,-2.52993E-1,-1.4604092E-1,-1.5963216E-1,-1.3760143E-4,-6.900002E-2,4.9465775E-2,-1.5462057E-2,8.803184E-2,1.2697155E-3,1.9281673E-1,1.5905065E-2,7.975896E-3,9.0062147E-4,-1.2909912E-1,-1.1508855E-3,-2.735302E-1,-1.9733146E-1,-7.4531645E-2,-1.1308052E-2,-8.957119E-2,-4.550215E-2,-1.6457342E-1,1.3664922E-2,1.6219151E-1,-4.468601E-2,6.522016E-2,-2.2577234E-3,1.04420036E-1,2.0409302E-1,2.9720855E-3,-4.739271E-3,-9.1536185E-3,-8.529125E-3,-1.5119398E-2,-2.4337005E-3,-1.0628898E-2,6.9145125E-4,-5.9886584E-3,-6.1891507E-3,-4.3640748E-4,-3.1545225E-3,4.7457726E-3,-1.1002908E-2,-2.7872834E-3,-2.618102E-3,2.9948307E-3,1.723096E-2,2.1896323E-3,-1.07597755E-2,-1.4739296E-3,5.9556233E-4,5.4405127E-3,5.7450323E-3,-5.0004484E-4,4.416187E-3,1.0692805E-2],"categories":[],"categories_nodes":[],"categories_segments":[],"categories_sizes":[],"default_left":[0,0,0,0,0,0,0,0,0,0,0,0,0,0,0,0,0,0,0,0,0,0,0,0,0,0,0,0,0,0,0,0,0,0,0,0,0,0,0,0,0,0,0,0,0,0,0,0,0,0,0,0,0,0,0,0,0,0,0,0,0,0,0,0,0,0,0,0,0,0,0,0,0],"id":9,"left_children":[1,3,5,7,9,11,13,15,17,19,21,23,-1,25,27,-1,29,31,33,35,-1,37,39,41,43,-1,45,-1,-1,-1,47,-1,49,51,53,-1,55,57,59,61,63,65,67,-1,69,71,-1,-1,-1,-1,-1,-1,-1,-1,-1,-1,-1,-1,-1,-1,-1,-1,-1,-1,-1,-1,-1,-1,-1,-1,-1,-1,-1],"loss_changes":[7.9311466E0,1.6493988E0,2.3885949E0,3.369298E-1,4.7450256E-1,1.7360666E0,2.9813194E-1,1.5338945E-1,2.9406977E-1,1.2915224E-1,5.181576E-1,5.7073784E-1,0E0,1.2928486E-1,4.0746212E-2,0E0,1.2928975E-1,2.2381616E-1,2.441907E-1,8.800161E-2,0E0,1.2197068E-1,3.111236E-1,2.979505E-1,2.0926571E-1,0E0,3.671384E-2,0E0,0E0,0E0,8.4503055E-2,0E0,4.9663067E-2,6.325412E-2,1.5216574E-1,0E0,3.268689E-2,1.4110938E-1,3.2611668E-2,1.9925219E-1,3.564524E-1,2.1293172E-1,6.331521E-2,0E0,1.0997355E-1,1.7551184E-3,0E0,0E0,0E0,0E0,0E0,0E0,0E0,0E0,0E0,0E0,0E0,0E0,0E0,0E0,0E0,0E0,0E0,0E0,0E0,0E0,0E0,0E0,0E0,0E0,0E0,0E0,0E0],"parents":[2147483647,0,0,1,1,2,2,3,3,4,4,5,5,6,6,7,7,8,8,9,9,10,10,11,11,13,13,14,14,16,16,17,17,18,18,19,19,21,21,22,22,23,23,24,24,26,26,30,30,32,32,33,33,34,34,36,36,37,37,38,38,39,39,40,40,41,41,42,42,44,44,45,45],"right_children":[2,4,6,8,10,12,14,16,18,20,22,24,-1,26,28,-1,30,32,34,36,-1,38,40,42,44,-1,46,-1,-1,-1,48,-1,50,52,54,-1,56,58,60,62,64,66,68,-1,70,72,-1,-1,-1,-1,-1,-1,-1,-1,-1,-1,-1,-1,-1,-1,-1,-1,-1,-1,-1,-1,-1,-1,-1,-1,-1,-1,-1],"split_conditions":[1E0,1.14E2,1E0,7.309513E-2,-2.2252093E-1,1E0,6.234898E-1,6.9E1,9.8E1,1.345E2,8.4E1,6.234898E-1,1.9035617E-2,2.7534594E1,2.36E2,1.1564548E-3,2E0,9.2E1,1.4468356E1,1.56E2,-1.3760143E-4,3E0,3.1E0,5E0,2E-1,1.2697155E-3,1.950033E2,1.5905065E-2,7.975896E-3,9.0062147E-4,2.8898838E1,-1.1508855E-3,8.1E1,1.2264484E1,2.2993977E1,-1.1308052E-2,1.8E0,1.37E2,1.28E2,1.09E2,9.1E1,2.1130383E1,3.409894E1,-2.2577234E-3,8.23923E-1,9.2E1,2.9720855E-3,-4.739271E-3,-9.1536185E-3,-8.529125E-3,-1.5119398E-2,-2.4337005E-3,-1.0628898E-2,6.9145125E-4,-5.9886584E-3,-6.1891507E-3,-4.3640748E-4,-3.1545225E-3,4.7457726E-3,-1.1002908E-2,-2.7872834E-3,-2.618102E-3,2.9948307E-3,1.723096E-2,2.1896323E-3,-1.07597755E-2,-1.4739296E-3,5.9556233E-4,5.4405127E-3,5.7450323E-3,-5.0004484E-4,4.416187E-3,1.0692805E-2],"split_indices":[19,38,16,26,21,6,21,60,48,48,60,21,0,58,39,0,3,43,50,55,0,76,10,3,10,0,74,0,0,0,58,0,39,58,62,0,10,42,39,43,60,62,70,0,26,43,0,0,0,0,0,0,0,0,0,0,0,0,0,0,0,0,0,0,0,0,0,0,0,0,0,0,0],"split_type":[0,0,0,0,0,0,0,0,0,0,0,0,0,0,0,0,0,0,0,0,0,0,0,0,0,0,0,0,0,0,0,0,0,0,0,0,0,0,0,0,0,0,0,0,0,0,0,0,0,0,0,0,0,0,0,0,0,0,0,0,0,0,0,0,0,0,0,0,0,0,0,0,0],"sum_hessian":[7.29E2,3.96E2,3.33E2,2.12E2,1.84E2,2.29E2,1.04E2,8.1E1,1.31E2,3.7E1,1.47E2,2.15E2,1.4E1,5.6E1,4.8E1,7E0,7.4E1,5.4E1,7.7E1,2.9E1,8E0,6.6E1,8.1E1,1.25E2,9E1,7E0,4.9E1,4E1,8E0,5E0,6.9E1,5E0,4.9E1,4.3E1,3.4E1,1.3E1,1.6E1,5.5E1,1.1E1,6.3E1,1.8E1,9.3E1,3.2E1,9E0,8.1E1,4.4E1,5E0,4.5E1,2.4E1,1.3E1,3.6E1,5E0,3.8E1,1.1E1,2.3E1,1E1,6E0,5E1,5E0,6E0,5E0,2.5E1,3.8E1,6E0,1.2E1,6E0,8.7E1,1.6E1,1.6E1,7.5E1,6E0,5E0,3.9E1],"tree_param":{"num_deleted":"0","num_feature":"87","num_nodes":"73","size_leaf_vector":"1"}},{"base_weights":[-2.9535724E-3,-9.04589E-2,9.9277824E-2,-1.2781462E-1,3.334679E-3,4.4172045E-2,2.1998714E-1,-1.8813017E-1,-9.535883E-2,-5.8752492E-2,6.289379E-2,2.2121437E-2,1.941294E-2,2.7372223E-1,1.643762E-1,-0E0,-1.9789691E-1,-1.0743126E-1,3.7147813E-2,-3.2803085E-2,-1.1071323E-2,-4.0286984E-2,1.0360242E-1,4.4255373E-3,1.4289525E-1,6.2682815E-3,2.9953256E-1,1.8293348E-1,1.801448E-3,-1.6000256E-1,-2.571222E-1,-1.867072E-1,-8.782336E-2,5.3170496E-3,-8.6868287E-4,-4.6492986E-2,2.9335849E-3,4.670194E-2,-9.275715E-3,1.5723748E-2,6.593991E-2,7.006346E-2,-2.7428059E-2,9.5415665E-3,8.876624E-2,9.001053E-3,1.6363135E-2,2.580162E-3,1.9808534E-1,-8.65831E-3,-9.715346E-4,-1.3732076E-2,-5.646256E-3,-1.1631861E-2,-1.3633723E-3,-3.055683E-3,-6.740766E-3,-7.7754824E-4,-5.033682E-3,8.025589E-3,-2.9112452E-3,1.5322588E-3,7.761507E-3,5.2806414E-3,1.7689972E-4,-3.4482912E-3,7.7746896E-4,8.6662685E-4,5.5284756E-3,4.3152976E-3,1.05770035E-2],"categories":[],"categories_nodes":[],"categories_segments":[],"categories_sizes":[],"default_left":[0,0,0,0,0,0,0,0,0,0,0,0,0,0,0,0,0,0,0,0,0,0,0,0,0,0,0,0,0,0,0,0,0,0,0,0,0,0,0,0,0,0,0,0,0,0,0,0,0,0,0,0,0,0,0,0,0,0,0,0,0,0,0,0,0,0,0,0,0,0,0],"id":10,"left_children":[1,3,5,7,9,11,13,15,17,19,21,23,-1,25,27,-1,29,31,33,35,-1,37,39,41,43,-1,45,47,-1,49,51,53,55,-1,-1,57,-1,59,-1,-1,61,63,65,-1,67,-1,-1,-1,69,-1,-1,-1,-1,-1,-1,-1,-1,-1,-1,-1,-1,-1,-1,-1,-1,-1,-1,-1,-1,-1,-1],"loss_changes":[6.6816587E0,1.4248762E0,2.2520792E0,5.19454E-1,4.2936286E-1,1.756156E0,2.3094034E-1,1.7743683E-1,3.1655777E-1,2.03706E-1,2.625262E-1,4.655058E-1,0E0,1.19074106E-1,1.04892254E-1,0E0,1.281116E-1,2.2972989E-1,7.110448E-2,6.4124E-2,0E0,2.3730898E-1,2.9066956E-1,4.201644E-1,2.7753353E-2,0E0,3.2862663E-2,6.032443E-2,0E0,9.02524E-2,1.6121387E-2,2.0932758E-1,1.5290833E-1,0E0,0E0,6.2252603E-2,0E0,1.5093327E-1,0E0,0E0,9.956293E-2,1.4479715E-1,2.4384382E-1,0E0,1.02131665E-2,0E0,0E0,0E0,1.5124679E-2,0E0,0E0,0E0,0E0,0E0,0E0,0E0,0E0,0E0,0E0,0E0,0E0,0E0,0E0,0E0,0E0,0E0,0E0,0E0,0E0,0E0,0E0],"parents":[2147483647,0,0,1,1,2,2,3,3,4,4,5,5,6,6,7,7,8,8,9,9,10,10,11,11,13,13,14,14,16,16,17,17,18,18,19,19,21,21,22,22,23,23,24,24,26,26,27,27,29,29,30,30,31,31,32,32,35,35,37,37,40,40,41,41,42,42,44,44,48,48],"right_children":[2,4,6,8,10,12,14,16,18,20,22,24,-1,26,28,-1,30,32,34,36,-1,38,40,42,44,-1,46,48,-1,50,52,54,56,-1,-1,58,-1,60,-1,-1,62,64,66,-1,68,-1,-1,-1,70,-1,-1,-1,-1,-1,-1,-1,-1,-1,-1,-1,-1,-1,-1,-1,-1,-1,-1,-1,-1,-1,-1],"split_conditions":[1E0,1.27E2,1E0,6.9E1,1.17E2,1E0,1.82E2,1.05E2,1E0,9.0150166E-1,8.4E1,1E0,1.941294E-2,1.34E2,1.9471428E2,-0E0,1.0435006E2,5E-1,8E1,6.067674E1,-1.1071323E-2,7.4E1,1.2097404E2,-4.3388373E-1,9E1,6.2682815E-3,2.8487997E1,3.2372402E1,1.801448E-3,7.6E1,3.1E0,1.35E2,2.4530762E1,5.3170496E-3,-8.6868287E-4,1.3157143E2,2.9335849E-3,1.46E2,-9.275715E-3,1.5723748E-2,1E0,2.7805447E1,1.3912003E2,9.5415665E-3,1.56E2,9.001053E-3,1.6363135E-2,2.580162E-3,2.7534594E1,-8.65831E-3,-9.715346E-4,-1.3732076E-2,-5.646256E-3,-1.1631861E-2,-1.3633723E-3,-3.055683E-3,-6.740766E-3,-7.7754824E-4,-5.033682E-3,8.025589E-3,-2.9112452E-3,1.5322588E-3,7.761507E-3,5.2806414E-3,1.7689972E-4,-3.4482912E-3,7.7746896E-4,8.6662685E-4,5.5284756E-3,4.3152976E-3,1.05770035E-2],"split_indices":[19,38,16,24,43,6,37,55,30,26,60,30,0,41,57,0,75,10,60,54,0,60,73,20,64,0,58,62,0,64,10,39,58,0,0,53,0,55,0,0,30,54,74,0,41,0,0,0,58,0,0,0,0,0,0,0,0,0,0,0,0,0,0,0,0,0,0,0,0,0,0],"split_type":[0,0,0,0,0,0,0,0,0,0,0,0,0,0,0,0,0,0,0,0,0,0,0,0,0,0,0,0,0,0,0,0,0,0,0,0,0,0,0,0,0,0,0,0,0,0,0,0,0,0,0,0,0,0,0,0,0,0,0,0,0,0,0,0,0,0,0,0,0,0,0],"sum_hessian":[7.45E2,4.02E2,3.43E2,2.88E2,1.14E2,2.37E2,1.06E2,9.8E1,1.9E2,5.5E1,5.9E1,2.24E2,1.3E1,5.1E1,5.5E1,5E0,9.3E1,1.75E2,1.5E1,4.9E1,6E0,1.6E1,4.3E1,1.97E2,2.7E1,9E0,4.2E1,4.7E1,8E0,6E1,3.3E1,3.2E1,1.43E2,7E0,8E0,4.4E1,5E0,1E1,6E0,5E0,3.8E1,6.5E1,1.32E2,1.2E1,1.5E1,1E1,3.2E1,6E0,4.1E1,5.4E1,6E0,2.8E1,5E0,2.4E1,8E0,9.4E1,4.9E1,3E1,1.4E1,5E0,5E0,2.9E1,9E0,4.1E1,2.4E1,6.8E1,6.4E1,5E0,1E1,6E0,3.5E1],"tree_param":{"num_deleted":"0","num_feature":"87","num_nodes":"71","size_leaf_vector":"1"}},{"base_weights":[-1.4643103E-3,-8.198379E-2,9.4953716E-2,-1.4888297E-1,-2.6426118E-2,4.5042455E-2,2.1146218E-1,-1.7195971E-1,-5.5462692E-2,2.530653E-2,-8.031699E-2,2.3881469E-2,1.6863486E-2,1.1000545E-1,2.4055122E-1,-0E0,-1.8027242E-1,-1.2265974E-1,-4.8792837E-3,1.6759737E-1,6.6045243E-3,1.1148247E-2,-1.09919205E-1,-1.6052483E-2,7.609558E-2,9.177715E-3,3.721669E-2,2.9038182E-1,1.6832075E-1,-1.264114E-1,-2.1422285E-1,-1.6633198E-3,-8.372396E-3,-4.765575E-3,2.676217E-2,1.4990195E-2,8.024652E-4,-7.1329854E-2,3.7127078E-2,1.10025436E-1,-7.431973E-2,-1.6013911E-1,-6.1776582E-2,-5.9148166E-2,2.8542105E-2,-0E0,8.908661E-2,-0E0,3.4059864E-3,1.5407055E-2,7.290836E-3,1.8652411E-1,1.9325765E-3,1.3109875E-3,-7.2099455E-3,-3.422999E-3,-1.1645324E-2,2.9178218E-3,-0E0,-0E0,-4.4345907E-3,4.9243425E-4,6.2867957E-3,-4.531097E-4,9.904399E-3,-0E0,-5.730801E-3,-4.680025E-3,-1.0517192E-2,-4.4132415E-3,-0E0,-3.7382224E-3,4.2500286E-3,-1.191061E-3,3.0369093E-3,3.7043362E-3,-2.8197283E-3,-7.164642E-4,4.9442137E-3,1.0603681E-2,4.89557E-3],"categories":[],"categories_nodes":[],"categories_segments":[],"categories_sizes":[],"default_left":[0,0,0,0,0,0,0,0,0,0,0,0,0,0,0,0,0,0,0,0,0,0,0,0,0,0,0,0,0,0,0,0,0,0,0,0,0,0,0,0,0,0,0,0,0,0,0,0,0,0,0,0,0,0,0,0,0,0,0,0,0,0,0,0,0,0,0,0,0,0,0,0,0,0,0,0,0,0,0,0,0],"id":11,"left_children":[1,3,5,7,9,11,13,15,17,19,21,23,-1,25,27,-1,29,31,33,35,37,39,41,43,45,-1,47,49,51,53,55,-1,-1,-1,57,-1,-1,59,61,63,65,67,69,71,73,75,77,-1,-1,-1,-1,79,-1,-1,-1,-1,-1,-1,-1,-1,-1,-1,-1,-1,-1,-1,-1,-1,-1,-1,-1,-1,-1,-1,-1,-1,-1,-1,-1,-1,-1],"loss_changes":[5.5185933E0,1.4206386E0,1.8430974E0,3.4499192E-1,6.0414803E-1,1.3657405E0,2.2180462E-1,2.1200323E-1,1.1241266E-1,2.7153543E-1,2.9810524E-1,4.534406E-1,0E0,9.9576324E-2,1.680007E-1,0E0,1.820612E-1,3.4414664E-2,7.521803E-2,2.040307E-1,2.323461E-1,2.3146927E-1,1.6375071E-1,2.3729074E-1,9.853983E-2,0E0,2.2371527E-2,1.4934063E-2,4.816675E-2,1.6489977E-1,1.6906524E-1,0E0,0E0,0E0,1.8473627E-2,0E0,0E0,3.5682634E-2,1.5923485E-1,1.5703079E-1,4.0903553E-2,7.685834E-2,6.580117E-2,1.4714864E-1,1.04606286E-1,6.1556183E-2,9.194434E-2,0E0,0E0,0E0,0E0,1.1629403E-2,0E0,0E0,0E0,0E0,0E0,0E0,0E0,0E0,0E0,0E0,0E0,0E0,0E0,0E0,0E0,0E0,0E0,0E0,0E0,0E0,0E0,0E0,0E0,0E0,0E0,0E0,0E0,0E0,0E0],"parents":[2147483647,0,0,1,1,2,2,3,3,4,4,5,5,6,6,7,7,8,8,9,9,10,10,11,11,13,13,14,14,16,16,17,17,18,18,19,19,20,20,21,21,22,22,23,23,24,24,26,26,27,27,28,28,29,29,30,30,34,34,37,37,38,38,39,39,40,40,41,41,42,42,43,43,44,44,45,45,46,46,51,51],"right_children":[2,4,6,8,10,12,14,16,18,20,22,24,-1,26,28,-1,30,32,34,36,38,40,42,44,46,-1,48,50,52,54,56,-1,-1,-1,58,-1,-1,60,62,64,66,68,70,72,74,76,78,-1,-1,-1,-1,80,-1,-1,-1,-1,-1,-1,-1,-1,-1,-1,-1,-1,-1,-1,-1,-1,-1,-1,-1,-1,-1,-1,-1,-1,-1,-1,-1,-1,-1],"split_conditions":[1E0,1.1175E2,1E0,1E0,-1.8369701E-16,1E0,-2.2252093E-1,8.1666664E1,1.43E1,3.1123096E1,1.47E2,6.234898E-1,1.6863486E-2,1.47E2,4.3388373E-1,-0E0,1.04E2,2.3636131E1,2.6079416E1,1.3057143E2,1.2E2,1.15E2,1.3E1,1.6E0,2.4E1,9.177715E-3,1.7540863E2,4.5835148E1,1.9221428E2,9.385714E1,1.21E1,-1.6633198E-3,-8.372396E-3,-4.765575E-3,1.2307143E2,1.4990195E-2,8.024652E-4,3.279408E1,3.949611E1,1.04E2,1.13E2,9.158643E-1,1E0,3.9361897E1,1.2E2,1.04E2,8.6E1,-0E0,3.4059864E-3,1.5407055E-2,7.290836E-3,1.82E2,1.9325765E-3,1.3109875E-3,-7.2099455E-3,-3.422999E-3,-1.1645324E-2,2.9178218E-3,-0E0,-0E0,-4.4345907E-3,4.9243425E-4,6.2867957E-3,-4.531097E-4,9.904399E-3,-0E0,-5.730801E-3,-4.680025E-3,-1.0517192E-2,-4.4132415E-3,-0E0,-3.7382224E-3,4.2500286E-3,-1.191061E-3,3.0369093E-3,3.7043362E-3,-2.8197283E-3,-7.164642E-4,4.9442137E-3,1.0603681E-2,4.89557E-3],"split_indices":[19,48,16,8,23,6,21,49,9,66,59,21,0,38,20,0,42,54,70,57,39,39,2,10,4,0,75,70,57,53,9,0,0,0,57,0,0,66,70,36,40,26,8,66,36,52,56,0,0,0,0,39,0,0,0,0,0,0,0,0,0,0,0,0,0,0,0,0,0,0,0,0,0,0,0,0,0,0,0,0,0],"split_type":[0,0,0,0,0,0,0,0,0,0,0,0,0,0,0,0,0,0,0,0,0,0,0,0,0,0,0,0,0,0,0,0,0,0,0,0,0,0,0,0,0,0,0,0,0,0,0,0,0,0,0,0,0,0,0,0,0,0,0,0,0,0,0,0,0,0,0,0,0,0,0,0,0,0,0,0,0,0,0,0,0],"sum_hessian":[7.09E2,3.87E2,3.22E2,1.74E2,2.13E2,2.27E2,9.5E1,1.38E2,3.6E1,1.08E2,1.05E2,2.13E2,1.4E1,2.3E1,7.2E1,6E0,1.32E2,1.4E1,2.2E1,1.1E1,9.7E1,2.5E1,8E1,1.2E2,9.3E1,1E1,1.3E1,4E1,3.2E1,5.4E1,7.8E1,6E0,8E0,6E0,1.6E1,5E0,6E0,2.6E1,7.1E1,1.2E1,1.3E1,3.7E1,4.3E1,6.2E1,5.8E1,1.3E1,8E1,5E0,8E0,3.4E1,6E0,2.7E1,5E0,5E0,4.9E1,1E1,6.8E1,8E0,8E0,5E0,2.1E1,5.6E1,1.5E1,5E0,7E0,5E0,8E0,1.8E1,1.9E1,2.9E1,1.4E1,5.7E1,5E0,2.1E1,3.7E1,5E0,8E0,6E0,7.4E1,1.9E1,8E0],"tree_param":{"num_deleted":"0","num_feature":"87","num_nodes":"81","size_leaf_vector":"1"}},{"base_weights":[1.9178486E-4,-7.548738E-2,1.0617135E-1,-1.5256308E-1,-3.9447602E-2,4.9354527E-2,2.0269635E-1,-9.575483E-2,-1.9502474E-1,-5.0962564E-2,1.4935812E-1,3.9869063E-2,1.4477297E-2,9.1766596E-2,2.3787306E-1,3.2885901E-3,-1.1283211E-1,-2.3695011E-1,-1.18109986E-1,-8.145125E-2,1.6279623E-3,1.1616509E-2,-0E0,-6.521404E-2,7.109431E-2,7.641628E-3,6.218858E-2,2.8171304E-1,1.6308588E-1,-1.3439482E-1,1.1769439E-3,-2.7295604E-1,-1.1132214E-1,-1.1301311E-3,-1.3230735E-1,-1.637316E-1,-5.7742264E-2,-2.0145478E-2,9.9083684E-2,-1.3181913E-1,-1.8874727E-2,-1.4806267E-2,9.003158E-2,-0E0,7.949122E-2,1.5743835E-2,9.801095E-3,1.0664015E-2,1.09776065E-1,-2.767239E-3,-7.898533E-3,-1.510714E-2,-6.026726E-3,-1.0158569E-2,-0E0,-7.5854324E-3,-1.4459244E-3,-9.941437E-3,-3.9856615E-3,-3.329103E-3,5.46142E-3,-1.9441197E-3,5.7134815E-3,-0E0,6.728511E-3,-1.2141401E-3,-9.733315E-3,-3.1552091E-3,3.786996E-4,-3.3408755E-3,4.2764633E-3,3.3526195E-3,7.2972775E-3,5.1655383E-3,1.364019E-3,6.657244E-3,1.6535207E-3],"categories":[],"categories_nodes":[],"categories_segments":[],"categories_sizes":[],"default_left":[0,0,0,0,0,0,0,0,0,0,0,0,0,0,0,0,0,0,0,0,0,0,0,0,0,0,0,0,0,0,0,0,0,0,0,0,0,0,0,0,0,0,0,0,0,0,0,0,0,0,0,0,0,0,0,0,0,0,0,0,0,0,0,0,0,0,0,0,0,0,0,0,0,0,0,0,0],"id":12,"left_children":[1,3,5,7,9,11,13,15,17,19,21,23,-1,25,27,-1,29,31,33,35,37,-1,-1,39,41,-1,43,45,47,49,-1,51,53,-1,55,57,59,61,63,65,67,69,71,-1,73,-1,-1,-1,75,-1,-1,-1,-1,-1,-1,-1,-1,-1,-1,-1,-1,-1,-1,-1,-1,-1,-1,-1,-1,-1,-1,-1,-1,-1,-1,-1,-1],"loss_changes":[6.0183954E0,1.1886756E0,1.6813593E0,2.8512716E-1,6.499995E-1,4.0890157E-1,3.939538E-1,1.8315023E-1,1.8480802E-1,4.6348512E-1,2.1451703E-1,6.385048E-1,0E0,2.317974E-2,1.9154215E-1,0E0,1.818592E-1,1.4830685E-1,2.2197098E-2,3.214903E-1,2.305723E-1,0E0,0E0,1.1824565E-1,2.5286394E-1,0E0,1.8469863E-2,3.4962654E-2,3.793621E-2,6.310916E-2,0E0,8.1466675E-2,1.278462E-1,0E0,2.7697057E-2,7.129991E-2,2.1407413E-1,2.1097893E-1,5.7176486E-2,8.827004E-2,3.8785715E-2,1.4474522E-1,1.2823665E-1,0E0,5.2643865E-3,0E0,0E0,0E0,1.48257315E-2,0E0,0E0,0E0,0E0,0E0,0E0,0E0,0E0,0E0,0E0,0E0,0E0,0E0,0E0,0E0,0E0,0E0,0E0,0E0,0E0,0E0,0E0,0E0,0E0,0E0,0E0,0E0,0E0],"parents":[2147483647,0,0,1,1,2,2,3,3,4,4,5,5,6,6,7,7,8,8,9,9,10,10,11,11,13,13,14,14,16,16,17,17,18,18,19,19,20,20,23,23,24,24,26,26,27,27,28,28,29,29,31,31,32,32,34,34,35,35,36,36,37,37,38,38,39,39,40,40,41,41,42,42,44,44,48,48],"right_children":[2,4,6,8,10,12,14,16,18,20,22,24,-1,26,28,-1,30,32,34,36,38,-1,-1,40,42,-1,44,46,48,50,-1,52,54,-1,56,58,60,62,64,66,68,70,72,-1,74,-1,-1,-1,76,-1,-1,-1,-1,-1,-1,-1,-1,-1,-1,-1,-1,-1,-1,-1,-1,-1,-1,-1,-1,-1,-1,-1,-1,-1,-1,-1,-1],"split_conditions":[1.32E2,8.7E1,1E0,9.5333336E1,1E0,1E0,-2.2252093E-1,9.3E1,6.234898E-1,1.3244986E2,3.0364132E1,1.25166664E2,1.4477297E-2,1.6446666E2,4.3388373E-1,3.2885901E-3,2.3428717E1,1.13E2,2.5253624E1,5E-1,6.234898E-1,1.1616509E-2,-0E0,2.8415735E1,1.9512323E1,7.641628E-3,1.763918E2,2.12E2,1.3E2,8.2E1,1.1769439E-3,1.21E2,3E0,-1.1301311E-3,1.41E2,1.21E2,1.64E2,4.028088E1,1E1,2.1178596E1,9.9E1,1.884018E1,1E0,-0E0,1.8633333E2,1.5743835E-2,9.801095E-3,1.0664015E-2,1.9230054E2,-2.767239E-3,-7.898533E-3,-1.510714E-2,-6.026726E-3,-1.0158569E-2,-0E0,-7.5854324E-3,-1.4459244E-3,-9.941437E-3,-3.9856615E-3,-3.329103E-3,5.46142E-3,-1.9441197E-3,5.7134815E-3,-0E0,6.728511E-3,-1.2141401E-3,-9.733315E-3,-3.1552091E-3,3.786996E-4,-3.3408755E-3,4.2764633E-3,3.3526195E-3,7.2972775E-3,5.1655383E-3,1.364019E-3,6.657244E-3,1.6535207E-3],"split_indices":[44,24,16,49,7,81,21,43,21,75,66,61,0,61,20,0,54,49,66,10,21,0,0,62,58,0,75,24,60,37,0,37,1,0,51,35,40,66,2,58,41,54,21,0,49,0,0,0,74,0,0,0,0,0,0,0,0,0,0,0,0,0,0,0,0,0,0,0,0,0,0,0,0,0,0,0,0],"split_type":[0,0,0,0,0,0,0,0,0,0,0,0,0,0,0,0,0,0,0,0,0,0,0,0,0,0,0,0,0,0,0,0,0,0,0,0,0,0,0,0,0,0,0,0,0,0,0,0,0,0,0,0,0,0,0,0,0,0,0,0,0,0,0,0,0,0,0,0,0,0,0,0,0,0,0,0,0],"sum_hessian":[7.48E2,4.36E2,3.12E2,1.37E2,2.99E2,1.98E2,1.14E2,6.1E1,7.6E1,2.83E2,1.6E1,1.92E2,6E0,2.9E1,8.5E1,5E0,5.6E1,4.7E1,2.9E1,1.8E2,1.03E2,1E1,6E0,4.3E1,1.49E2,7E0,2.2E1,5.1E1,3.4E1,4.9E1,7E0,3.5E1,1.2E1,5E0,2.4E1,3.8E1,1.42E2,8.4E1,1.9E1,1.6E1,2.7E1,2.6E1,1.23E2,6E0,1.6E1,3.4E1,1.7E1,1.5E1,1.9E1,1.3E1,3.6E1,2.8E1,7E0,6E0,6E0,1.9E1,5E0,2.5E1,1.3E1,1.36E2,6E0,7.5E1,9E0,6E0,1.3E1,7E0,9E0,1.1E1,1.6E1,1.8E1,8E0,9E1,3.3E1,9E0,7E0,1.3E1,6E0],"tree_param":{"num_deleted":"0","num_feature":"87","num_nodes":"77","size_leaf_vector":"1"}},{"base_weights":[6.1015594E-3,-7.1508236E-2,9.4551444E-2,-1.4742634E-1,-3.213231E-2,4.2280428E-2,1.9875652E-1,-4.4348713E-2,-1.6485547E-1,-1.11985974E-1,1.2066412E-3,2.2190332E-2,1.5903722E-2,2.9506484E-1,1.6942891E-1,3.2284886E-3,-8.867135E-2,-3.694458E-4,-1.7782389E-1,-2.60328E-2,-1.3842593E-1,-7.688553E-2,2.7772384E-2,-1.7612971E-2,6.584059E-2,6.022504E-3,1.6470674E-2,8.883007E-2,1.9465533E-1,-3.7521566E-4,-6.3310573E-3,-0E0,-1.8635724E-1,-0E0,-4.0703905E-3,-1.0437419E-1,-1.8330942E-1,-0E0,-1.2437515E-1,1.6185533E-1,1.3878242E-2,-1.032025E-1,4.7934097E-3,1.5301225E-1,4.8106648E-2,3.0104705E-4,1.1054306E-1,2.270187E-3,2.0715709E-1,-1.05106E-2,-6.4476803E-3,-1.285028E-3,2.3375305E-3,-1.2243477E-3,-6.137658E-3,-1.14362715E-2,-4.059174E-3,-2.2840237E-3,4.0772944E-3,-7.0440457E-3,-1.1853607E-3,1.2841517E-2,3.7043015E-4,3.8201287E-3,-1.15196584E-4,2.1447659E-4,-6.8489397E-3,-2.7824678E-3,1.4287728E-3,2.5492343E-3,9.283126E-3,-3.376978E-3,3.0084576E-3,7.0383E-3,2.6784176E-3,1.1711307E-2,7.7945697E-3],"categories":[],"categories_nodes":[],"categories_segments":[],"categories_sizes":[],"default_left":[0,0,0,0,0,0,0,0,0,0,0,0,0,0,0,0,0,0,0,0,0,0,0,0,0,0,0,0,0,0,0,0,0,0,0,0,0,0,0,0,0,0,0,0,0,0,0,0,0,0,0,0,0,0,0,0,0,0,0,0,0,0,0,0,0,0,0,0,0,0,0,0,0,0,0,0,0],"id":13,"left_children":[1,3,5,7,9,11,13,15,17,19,21,23,-1,25,27,-1,29,-1,31,33,35,37,39,41,43,-1,-1,45,47,-1,-1,-1,49,51,-1,53,55,57,59,61,63,65,67,69,71,-1,73,-1,75,-1,-1,-1,-1,-1,-1,-1,-1,-1,-1,-1,-1,-1,-1,-1,-1,-1,-1,-1,-1,-1,-1,-1,-1,-1,-1,-1,-1],"loss_changes":[4.9584255E0,1.1252158E0,1.8085468E0,2.0532012E-1,6.900836E-1,1.2166607E0,2.1990108E-1,1.0951429E-1,2.0479512E-1,1.5266788E-1,3.7064776E-1,3.760538E-1,0E0,5.9282303E-2,1.3531685E-1,0E0,3.4921616E-2,0E0,1.4023161E-1,3.2836482E-2,3.9215446E-2,1.6712469E-1,2.3354393E-1,2.2320603E-1,1.3175464E-1,0E0,0E0,3.0830845E-2,8.84881E-2,0E0,0E0,0E0,7.043338E-2,1.9058384E-2,0E0,3.5126925E-2,5.2479804E-2,7.158859E-2,2.6726127E-2,1.4769632E-1,1.3405833E-1,1.0099289E-1,1.2537865E-1,2.016896E-2,1.2608528E-1,0E0,4.0209293E-3,0E0,7.7371597E-3,0E0,0E0,0E0,0E0,0E0,0E0,0E0,0E0,0E0,0E0,0E0,0E0,0E0,0E0,0E0,0E0,0E0,0E0,0E0,0E0,0E0,0E0,0E0,0E0,0E0,0E0,0E0,0E0],"parents":[2147483647,0,0,1,1,2,2,3,3,4,4,5,5,6,6,7,7,8,8,9,9,10,10,11,11,13,13,14,14,16,16,18,18,19,19,20,20,21,21,22,22,23,23,24,24,27,27,28,28,32,32,33,33,35,35,36,36,37,37,38,38,39,39,40,40,41,41,42,42,43,43,44,44,46,46,48,48],"right_children":[2,4,6,8,10,12,14,16,18,20,22,24,-1,26,28,-1,30,-1,32,34,36,38,40,42,44,-1,-1,46,48,-1,-1,-1,50,52,-1,54,56,58,60,62,64,66,68,70,72,-1,74,-1,76,-1,-1,-1,-1,-1,-1,-1,-1,-1,-1,-1,-1,-1,-1,-1,-1,-1,-1,-1,-1,-1,-1,-1,-1,-1,-1,-1,-1],"split_conditions":[1E0,8.9E1,1E0,1E0,-2.2252093E-1,1E0,1.4333333E2,1.13E2,8.1666664E1,-8.958393E-1,1.09E2,1.345E2,1.5903722E-2,1.27E2,1.57E2,3.2284886E-3,1.13E2,-3.694458E-4,1.4505845E1,1.3666667E2,1.2E2,1.37E2,1.13E2,2.3920967E1,-8.85456E-1,6.022504E-3,1.6470674E-2,1.16E2,3.1728083E1,-3.7521566E-4,-6.3310573E-3,-0E0,1.04666664E2,2.2E0,-4.0703905E-3,1.8457157E1,1.26E2,2.62E2,2.6E0,2.41E2,-9.6573997E-1,1.07E2,1.06E2,1.49E2,1.07E2,3.0104705E-4,1.7796666E2,2.270187E-3,1.9031804E2,-1.05106E-2,-6.4476803E-3,-1.285028E-3,2.3375305E-3,-1.2243477E-3,-6.137658E-3,-1.14362715E-2,-4.059174E-3,-2.2840237E-3,4.0772944E-3,-7.0440457E-3,-1.1853607E-3,1.2841517E-2,3.7043015E-4,3.8201287E-3,-1.15196584E-4,2.1447659E-4,-6.8489397E-3,-2.7824678E-3,1.4287728E-3,2.5492343E-3,9.283126E-3,-3.376978E-3,3.0084576E-3,7.0383E-3,2.6784176E-3,1.1711307E-2,7.7945697E-3],"split_indices":[19,24,16,3,21,6,65,48,49,25,38,48,0,39,48,0,38,0,62,49,42,55,51,62,28,0,0,42,62,0,0,0,49,10,0,54,37,71,10,71,25,39,39,38,42,0,61,0,73,0,0,0,0,0,0,0,0,0,0,0,0,0,0,0,0,0,0,0,0,0,0,0,0,0,0,0,0],"split_type":[0,0,0,0,0,0,0,0,0,0,0,0,0,0,0,0,0,0,0,0,0,0,0,0,0,0,0,0,0,0,0,0,0,0,0,0,0,0,0,0,0,0,0,0,0,0,0,0,0,0,0,0,0,0,0,0,0,0,0,0,0,0,0,0,0,0,0,0,0,0,0,0,0,0,0,0,0],"sum_hessian":[7.2E2,3.83E2,3.37E2,1.29E2,2.54E2,2.26E2,1.11E2,2E1,1.09E2,7.5E1,1.79E2,2.12E2,1.4E1,2.3E1,8.8E1,5E0,1.5E1,9E0,1E2,1.9E1,5.6E1,4.4E1,1.35E2,1.1E2,1.02E2,5E0,1.8E1,2.3E1,6.5E1,6E0,9E0,5E0,9.5E1,1.3E1,6E0,3.5E1,2.1E1,1.7E1,2.7E1,1.1E1,1.24E2,2.3E1,8.7E1,1.5E1,8.7E1,6E0,1.7E1,6E0,5.9E1,6.4E1,3.1E1,8E0,5E0,8E0,2.7E1,1.3E1,8E0,1.1E1,6E0,2.2E1,5E0,6E0,5E0,2.6E1,9.8E1,5E0,1.8E1,2.3E1,6.4E1,5E0,1E1,7E0,8E1,9E0,8E0,3.5E1,2.4E1],"tree_param":{"num_deleted":"0","num_feature":"87","num_nodes":"77","size_leaf_vector":"1"}},{"base_weights":[4.704005E-3,-6.924436E-2,1.0092871E-1,-1.0339953E-1,1.0292252E-2,1.7768085E-1,3.6395386E-2,-1.5080082E-1,-7.477778E-2,-7.8380145E-3,1.2495491E-2,-9.858295E-4,1.8726982E-1,4.986437E-2,-5.315971E-2,-1.6340008E-1,4.945064E-4,-9.831627E-2,-1.41883055E-2,-2.4760572E-2,7.281481E-2,-0E0,1.9586697E-1,1.7149074E-2,9.753008E-2,-6.262438E-3,-0E0,-1.2622114E-3,-1.7596366E-1,-1.2998623E-1,-4.856338E-2,-7.9905726E-2,4.377031E-2,-6.2367056E-2,2.2694597E-2,-0E0,5.9598507E-3,1.0585697E-1,2.1430455E-1,-6.5783285E-2,4.885731E-2,1.279607E-1,-0E0,-1.9962024E-3,2.0157392E-3,-9.7566685E-3,-5.406154E-3,-8.8407975E-3,-2.5783714E-3,-4.0321406E-3,1.6999102E-4,-5.010414E-3,-4.599476E-4,8.926824E-3,1.1815175E-4,-6.1171805E-4,-5.3350464E-3,5.798643E-3,-0E0,7.794468E-3,1.9994713E-3,1.1348632E-2,4.391171E-3,-4.934845E-3,9.3327864E-4,6.8506696E-3,1.2867169E-3,4.4655143E-3,8.6460635E-3,1.4442359E-3,-2.102497E-3],"categories":[],"categories_nodes":[],"categories_segments":[],"categories_sizes":[],"default_left":[0,0,0,0,0,0,0,0,0,0,0,0,0,0,0,0,0,0,0,0,0,0,0,0,0,0,0,0,0,0,0,0,0,0,0,0,0,0,0,0,0,0,0,0,0,0,0,0,0,0,0,0,0,0,0,0,0,0,0,0,0,0,0,0,0,0,0,0,0,0,0],"id":14,"left_children":[1,3,5,7,9,11,13,15,17,19,-1,-1,21,23,25,27,-1,29,31,33,35,-1,37,39,41,-1,43,-1,45,47,49,51,53,55,57,-1,-1,59,61,63,65,67,69,-1,-1,-1,-1,-1,-1,-1,-1,-1,-1,-1,-1,-1,-1,-1,-1,-1,-1,-1,-1,-1,-1,-1,-1,-1,-1,-1,-1],"loss_changes":[5.119201E0,1.113309E0,1.5224361E0,3.528273E-1,5.561742E-1,2.892313E-1,2.0979045E-1,2.295487E-1,2.4549389E-1,1.5259066E-1,0E0,0E0,2.1778488E-1,2.223286E-1,9.4701506E-2,1.455388E-1,0E0,1.7909431E-1,2.0898226E-1,1.7670637E-1,5.554927E-2,0E0,1.6104174E-1,2.4344818E-1,1.8247426E-1,0E0,2.256583E-2,0E0,6.4318895E-2,2.5081313E-1,9.6346825E-2,2.5461182E-2,1.3773654E-1,1.0904278E-1,8.596577E-2,0E0,0E0,5.656597E-2,1.1842775E-1,7.93333E-2,1.1881256E-1,3.826946E-2,1.9886324E-2,0E0,0E0,0E0,0E0,0E0,0E0,0E0,0E0,0E0,0E0,0E0,0E0,0E0,0E0,0E0,0E0,0E0,0E0,0E0,0E0,0E0,0E0,0E0,0E0,0E0,0E0,0E0,0E0],"parents":[2147483647,0,0,1,1,2,2,3,3,4,4,5,5,6,6,7,7,8,8,9,9,12,12,13,13,14,14,15,15,17,17,18,18,19,19,20,20,22,22,23,23,24,24,26,26,28,28,29,29,30,30,31,31,32,32,33,33,34,34,37,37,38,38,39,39,40,40,41,41,42,42],"right_children":[2,4,6,8,10,12,14,16,18,20,-1,-1,22,24,26,28,-1,30,32,34,36,-1,38,40,42,-1,44,-1,46,48,50,52,54,56,58,-1,-1,60,62,64,66,68,70,-1,-1,-1,-1,-1,-1,-1,-1,-1,-1,-1,-1,-1,-1,-1,-1,-1,-1,-1,-1,-1,-1,-1,-1,-1,-1,-1,-1],"split_conditions":[1.32E2,1E0,-7.206671E-1,1.0225E2,1E0,7.8E1,3E0,9.979172E-1,2.5E0,5E0,1.2495491E-2,-9.858295E-4,8.4E1,1.5E2,8.6E1,7.6E1,4.945064E-4,2.51E2,9.2E1,1.3585715E2,1.12E2,-0E0,-2.2252093E-1,1.3075E2,1.4214285E2,-6.262438E-3,1.09E2,-1.2622114E-3,1.26E2,5E0,1.22E2,1.03E2,1.9491966E1,1.13E2,2E0,-0E0,5.9598507E-3,4.135191E1,2.82E2,1.18E2,1.415E2,1.36E2,1.4528572E2,-1.9962024E-3,2.0157392E-3,-9.7566685E-3,-5.406154E-3,-8.8407975E-3,-2.5783714E-3,-4.0321406E-3,1.6999102E-4,-5.010414E-3,-4.599476E-4,8.926824E-3,1.1815175E-4,-6.1171805E-4,-5.3350464E-3,5.798643E-3,-0E0,7.794468E-3,1.9994713E-3,1.1348632E-2,4.391171E-3,-4.934845E-3,9.3327864E-4,6.8506696E-3,1.2867169E-3,4.4655143E-3,8.6460635E-3,1.4442359E-3,-2.102497E-3],"split_indices":[38,19,26,48,6,64,76,25,10,3,0,0,43,43,64,46,0,71,52,53,36,0,21,48,53,0,43,0,37,3,45,37,62,46,3,0,0,66,59,41,48,35,53,0,0,0,0,0,0,0,0,0,0,0,0,0,0,0,0,0,0,0,0,0,0,0,0,0,0,0,0],"split_type":[0,0,0,0,0,0,0,0,0,0,0,0,0,0,0,0,0,0,0,0,0,0,0,0,0,0,0,0,0,0,0,0,0,0,0,0,0,0,0,0,0,0,0,0,0,0,0,0,0,0,0,0,0,0,0,0,0,0,0,0,0,0,0,0,0,0,0,0,0,0,0],"sum_hessian":[7.17E2,4.05E2,3.12E2,2.84E2,1.21E2,1.41E2,1.71E2,1.04E2,1.8E2,1.13E2,8E0,6E0,1.35E2,1.5E2,2.1E1,9.7E1,7E0,1.28E2,5.2E1,9.5E1,1.8E1,6E0,1.29E2,9.1E1,5.9E1,9E0,1.2E1,9E0,8.8E1,7.6E1,5.2E1,2.5E1,2.7E1,5.4E1,4.1E1,8E0,1E1,2.4E1,1.05E2,2.4E1,6.7E1,4.5E1,1.4E1,5E0,7E0,6.6E1,2.2E1,4.6E1,3E1,3.3E1,1.9E1,1.8E1,7E0,5E0,2.2E1,2.7E1,2.7E1,7E0,3.4E1,1.2E1,1.2E1,9.4E1,1.1E1,1.8E1,6E0,1.2E1,5.5E1,2.7E1,1.8E1,8E0,6E0],"tree_param":{"num_deleted":"0","num_feature":"87","num_nodes":"71","size_leaf_vector":"1"}},{"base_weights":[2.4121525E-3,-8.0965966E-2,7.580418E-2,-9.268978E-2,1.940216E-1,3.4629274E-2,1.7717177E-1,-1.5500924E-1,-5.9502684E-2,3.6862723E-3,1.2077498E-2,2.4944857E-2,1.2025128E-2,9.8018505E-2,2.120599E-1,-9.916814E-2,-1.9175716E-1,-9.6017696E-2,-3.279064E-2,-7.0906915E-2,4.0968228E-2,7.45554E-3,5.6087945E-2,2.482656E-3,2.213892E-1,-1.296096E-1,1.8017393E-3,-1.6993253E-2,-1.6065478E-1,-1.316391E-1,-3.6151182E-2,6.215915E-2,-4.5759823E-2,-9.726057E-2,3.4594685E-3,-7.2266825E-2,5.0153542E-2,-3.4799168E-4,8.463186E-2,1.1915968E-2,1.420469E-1,-7.4240686E-3,-0E0,-9.742438E-3,-2.7302336E-3,2.2371531E-4,-7.3669963E-3,-6.0252217E-3,-5.9651915E-4,-3.0270894E-4,7.763392E-3,-5.5392752E-3,-1.0164877E-3,-9.116387E-4,-6.570013E-3,-7.6444107E-3,-2.6508418E-4,2.8771947E-3,-2.3023381E-3,5.309235E-3,1.2193571E-3,2.3575218E-3,8.590217E-3],"categories":[],"categories_nodes":[],"categories_segments":[],"categories_sizes":[],"default_left":[0,0,0,0,0,0,0,0,0,0,0,0,0,0,0,0,0,0,0,0,0,0,0,0,0,0,0,0,0,0,0,0,0,0,0,0,0,0,0,0,0,0,0,0,0,0,0,0,0,0,0,0,0,0,0,0,0,0,0,0,0,0,0],"id":15,"left_children":[1,3,5,7,9,11,13,15,17,-1,-1,19,-1,21,23,25,27,29,31,33,35,-1,37,-1,39,41,-1,-1,43,45,47,49,51,53,-1,55,57,-1,59,-1,61,-1,-1,-1,-1,-1,-1,-1,-1,-1,-1,-1,-1,-1,-1,-1,-1,-1,-1,-1,-1,-1,-1],"loss_changes":[4.4910603E0,1.1136498E0,1.6046405E0,6.5183187E-1,3.070879E-2,5.2570957E-1,2.5749564E-1,1.8377233E-1,1.966058E-1,0E0,0E0,4.130597E-1,0E0,5.0382942E-2,7.7053785E-2,2.1158507E-1,1.9937658E-1,1.7038971E-1,1.6005781E-1,1.4983444E-1,2.4271622E-1,0E0,4.974772E-2,0E0,2.3483515E-2,9.9689186E-2,0E0,0E0,1.7111254E-1,1.3248599E-1,5.8870573E-2,1.1113019E-1,1.7480107E-1,7.167438E-2,0E0,7.515043E-2,1.573655E-1,0E0,6.4268336E-3,0E0,1.5185893E-2,0E0,0E0,0E0,0E0,0E0,0E0,0E0,0E0,0E0,0E0,0E0,0E0,0E0,0E0,0E0,0E0,0E0,0E0,0E0,0E0,0E0,0E0],"parents":[2147483647,0,0,1,1,2,2,3,3,4,4,5,5,6,6,7,7,8,8,11,11,13,13,14,14,15,15,16,16,17,17,18,18,19,19,20,20,22,22,24,24,25,25,28,28,29,29,30,30,31,31,32,32,33,33,35,35,36,36,38,38,40,40],"right_children":[2,4,6,8,10,12,14,16,18,-1,-1,20,-1,22,24,26,28,30,32,34,36,-1,38,-1,40,42,-1,-1,44,46,48,50,52,54,-1,56,58,-1,60,-1,62,-1,-1,-1,-1,-1,-1,-1,-1,-1,-1,-1,-1,-1,-1,-1,-1,-1,-1,-1,-1,-1,-1],"split_conditions":[1.23E2,1E0,1E0,8.7E1,9.2E1,1E0,-2.2252093E-1,9.5333336E1,-2.2252093E-1,3.6862723E-3,1.2077498E-2,1.17E2,1.2025128E-2,1.47E2,1.33E2,2.5E1,8.525E1,1E0,1.53E2,1.5E2,1.02E2,7.45554E-3,1.3E2,2.482656E-3,2.2E2,1.03E2,1.8017393E-3,-1.6993253E-2,1.32E2,6.9E1,1.34E2,1.12E2,1.03E2,1.65E1,3.4594685E-3,2.9309683E1,8.85456E-1,-3.4799168E-4,1.64E2,1.1915968E-2,4E-1,-7.4240686E-3,-0E0,-9.742438E-3,-2.7302336E-3,2.2371531E-4,-7.3669963E-3,-6.0252217E-3,-5.9651915E-4,-3.0270894E-4,7.763392E-3,-5.5392752E-3,-1.0164877E-3,-9.116387E-4,-6.570013E-3,-7.6444107E-3,-2.6508418E-4,2.8771947E-3,-2.3023381E-3,5.309235E-3,1.2193571E-3,2.3575218E-3,8.590217E-3],"split_indices":[44,6,16,24,41,6,21,49,21,0,0,24,0,44,46,2,48,19,63,43,46,0,42,0,24,35,0,0,51,60,51,53,41,9,0,62,28,0,35,0,10,0,0,0,0,0,0,0,0,0,0,0,0,0,0,0,0,0,0,0,0,0,0],"split_type":[0,0,0,0,0,0,0,0,0,0,0,0,0,0,0,0,0,0,0,0,0,0,0,0,0,0,0,0,0,0,0,0,0,0,0,0,0,0,0,0,0,0,0,0,0,0,0,0,0,0,0,0,0,0,0,0,0,0,0,0,0,0,0],"sum_hessian":[7.32E2,3.42E2,3.9E2,3.29E2,1.3E1,2.79E2,1.11E2,1.12E2,2.17E2,5E0,8E0,2.68E2,1.1E1,3.6E1,7.5E1,4.7E1,6.5E1,8.9E1,1.28E2,3.7E1,2.31E2,1.4E1,2.2E1,5E0,7E1,3.9E1,8E0,9E0,5.6E1,5.4E1,3.5E1,1.4E1,1.14E2,3.2E1,5E0,1.6E1,2.15E2,6E0,1.6E1,5.5E1,1.5E1,3.4E1,5E0,4.1E1,1.5E1,5E0,4.9E1,6E0,2.9E1,8E0,6E0,3E1,8.4E1,1.1E1,2.1E1,6E0,1E1,2.01E2,1.4E1,1E1,6E0,5E0,1E1],"tree_param":{"num_deleted":"0","num_feature":"87","num_nodes":"63","size_leaf_vector":"1"}},{"base_weights":[1.4257623E-3,-6.269778E-2,9.008129E-2,-9.3545735E-2,2.0974755E-2,4.792278E-2,1.7009702E-1,-1.6698767E-1,-7.739567E-2,6.296337E-2,-3.6306594E-2,2.975073E-2,1.3169731E-2,1.0518483E-1,1.9396251E-1,-1.7960219E-1,-1.0786804E-3,9.953634E-3,-8.963976E-2,1.6503343E-1,9.441045E-3,-0E0,-1.498237E-1,-2.6564945E-2,7.344714E-2,4.4095695E-2,8.453597E-3,2.85851E-3,2.0608944E-1,-1.8913102E-3,-1.9288251E-1,1.10684104E-1,-7.362934E-2,-6.738081E-2,-1.4351359E-1,1.4743552E-2,7.811781E-2,-5.0378315E-2,4.1307155E-2,4.877373E-3,-3.2285392E-2,-3.0201785E-3,-9.880328E-3,-8.040031E-2,3.3838246E-2,3.4869637E-2,1.1557056E-1,4.4587366E-3,1.2205703E-2,2.3925318E-1,1.456213E-1,-6.6014263E-3,-1.1017524E-2,1.0894547E-2,1.9458347E-4,-5.2863057E-3,-0E0,-5.427125E-3,-2.076353E-3,-8.382696E-3,-1.5038744E-3,1.3336045E-3,5.9408452E-3,4.6891687E-4,-4.559724E-3,-4.113994E-4,4.15476E-3,-4.4813654E-3,-0E0,-0E0,-5.775519E-3,4.3269484E-3,-1.5235407E-3,5.643317E-3,-0E0,7.3709846E-3,4.1703405E-4,-0E0,1.4706298E-3,5.618013E-3,1.2770007E-2,3.487017E-3,8.431873E-3],"categories":[],"categories_nodes":[],"categories_segments":[],"categories_sizes":[],"default_left":[0,0,0,0,0,0,0,0,0,0,0,0,0,0,0,0,0,0,0,0,0,0,0,0,0,0,0,0,0,0,0,0,0,0,0,0,0,0,0,0,0,0,0,0,0,0,0,0,0,0,0,0,0,0,0,0,0,0,0,0,0,0,0,0,0,0,0,0,0,0,0,0,0,0,0,0,0,0,0,0,0,0,0],"id":16,"left_children":[1,3,5,7,9,11,13,15,17,19,21,23,-1,25,27,29,-1,31,33,35,37,39,41,43,45,47,-1,-1,49,-1,51,53,55,57,59,-1,61,63,65,-1,67,-1,-1,69,71,73,75,-1,77,79,81,-1,-1,-1,-1,-1,-1,-1,-1,-1,-1,-1,-1,-1,-1,-1,-1,-1,-1,-1,-1,-1,-1,-1,-1,-1,-1,-1,-1,-1,-1,-1,-1],"loss_changes":[4.084464E0,1.0829679E0,9.887965E-1,3.243959E-1,2.7433008E-1,7.4596214E-1,1.0924721E-1,7.322693E-2,2.7944767E-1,3.415542E-1,1.8496463E-1,4.6434674E-1,0E0,9.221494E-2,8.2989216E-2,6.0009003E-2,0E0,2.72855E-1,2.3665643E-1,1.8793452E-1,8.6953335E-2,1.1586762E-1,9.263083E-3,2.707749E-1,1.531778E-1,1.4649782E-2,0E0,0E0,5.9025288E-2,0E0,7.5455904E-3,1.4870697E-1,4.1974373E-2,1.5181917E-1,1.4770234E-1,0E0,1.3688922E-2,4.5622423E-2,7.233971E-2,0E0,5.813553E-2,0E0,0E0,1.158542E-1,1.370308E-1,1.5877691E-1,1.5053815E-1,0E0,4.118976E-3,1.6484737E-2,1.1556566E-2,0E0,0E0,0E0,0E0,0E0,0E0,0E0,0E0,0E0,0E0,0E0,0E0,0E0,0E0,0E0,0E0,0E0,0E0,0E0,0E0,0E0,0E0,0E0,0E0,0E0,0E0,0E0,0E0,0E0,0E0,0E0,0E0],"parents":[2147483647,0,0,1,1,2,2,3,3,4,4,5,5,6,6,7,7,8,8,9,9,10,10,11,11,13,13,14,14,15,15,17,17,18,18,19,19,20,20,21,21,22,22,23,23,24,24,25,25,28,28,30,30,31,31,32,32,33,33,34,34,36,36,37,37,38,38,40,40,43,43,44,44,45,45,46,46,48,48,49,49,50,50],"right_children":[2,4,6,8,10,12,14,16,18,20,22,24,-1,26,28,30,-1,32,34,36,38,40,42,44,46,48,-1,-1,50,-1,52,54,56,58,60,-1,62,64,66,-1,68,-1,-1,70,72,74,76,-1,78,80,82,-1,-1,-1,-1,-1,-1,-1,-1,-1,-1,-1,-1,-1,-1,-1,-1,-1,-1,-1,-1,-1,-1,-1,-1,-1,-1,-1,-1,-1,-1,-1,-1],"split_conditions":[1.34E2,1.32E2,1E0,9E1,6.123234E-17,1E0,1.555E2,8.4E1,1.9642466E1,1.3157143E2,1.41E2,1.335E2,1.3169731E-2,1E0,3.230083E1,8.9E1,-1.0786804E-3,1.1375E2,2.07E1,1.3E2,2.3521013E1,1.9335812E1,9.8E1,1.35E2,1.9E1,9.7E0,8.453597E-3,2.85851E-3,1.94E2,-1.8913102E-3,1.0392304E1,8.7E1,1.24E2,1.01E2,3.1E0,1.4743552E-2,1.55E2,8.185352E0,8.5E1,4.877373E-3,8.8E1,-3.0201785E-3,-9.880328E-3,1.07E2,1.29E2,1.2985715E2,1.01E2,4.4587366E-3,1.05E2,5E-1,1.49E2,-6.6014263E-3,-1.1017524E-2,1.0894547E-2,1.9458347E-4,-5.2863057E-3,-0E0,-5.427125E-3,-2.076353E-3,-8.382696E-3,-1.5038744E-3,1.3336045E-3,5.9408452E-3,4.6891687E-4,-4.559724E-3,-4.113994E-4,4.15476E-3,-4.4813654E-3,-0E0,-0E0,-5.775519E-3,4.3269484E-3,-1.5235407E-3,5.643317E-3,-0E0,7.3709846E-3,4.1703405E-4,-0E0,1.4706298E-3,5.618013E-3,1.2770007E-2,3.487017E-3,8.431873E-3],"split_indices":[35,38,16,39,23,6,48,60,62,53,42,48,0,8,62,37,0,65,9,41,54,58,35,53,2,9,0,0,37,0,50,43,41,41,10,0,55,50,68,0,52,0,0,46,42,53,64,0,43,10,41,0,0,0,0,0,0,0,0,0,0,0,0,0,0,0,0,0,0,0,0,0,0,0,0,0,0,0,0,0,0,0,0],"split_type":[0,0,0,0,0,0,0,0,0,0,0,0,0,0,0,0,0,0,0,0,0,0,0,0,0,0,0,0,0,0,0,0,0,0,0,0,0,0,0,0,0,0,0,0,0,0,0,0,0,0,0,0,0,0,0,0,0,0,0,0,0,0,0,0,0,0,0,0,0,0,0,0,0,0,0,0,0,0,0,0,0,0,0],"sum_hessian":[7.16E2,4.15E2,3.01E2,3.04E2,1.11E2,1.99E2,1.02E2,5.2E1,2.52E2,6.5E1,4.6E1,1.85E2,1.4E1,3E1,7.2E1,4.7E1,5E0,3E1,2.22E2,2.1E1,4.4E1,3.6E1,1E1,8E1,1.05E2,1.7E1,1.3E1,7E0,6.5E1,5E0,4.2E1,1.4E1,1.6E1,1.6E2,6.2E1,7E0,1.4E1,1.4E1,3E1,8E0,2.8E1,5E0,5E0,4.3E1,3.7E1,5.7E1,4.8E1,5E0,1.2E1,3.9E1,2.6E1,1.6E1,2.6E1,6E0,8E0,1.1E1,5E0,5.9E1,1.01E2,5E1,1.2E1,8E0,6E0,5E0,9E0,1.3E1,1.7E1,1E1,1.8E1,1.4E1,2.9E1,2.1E1,1.6E1,1.7E1,4E1,3.6E1,1.2E1,6E0,6E0,6E0,3.3E1,8E0,1.8E1],"tree_param":{"num_deleted":"0","num_feature":"87","num_nodes":"83","size_leaf_vector":"1"}},{"base_weights":[3.047576E-3,-6.877189E-2,8.405103E-2,-1.0397075E-1,-1.0719125E-2,3.3354215E-2,1.4628708E-1,-1.2065746E-1,-3.748307E-2,2.7042546E-3,-1.0584931E-1,-4.695452E-3,9.258565E-2,1.8590686E-1,1.011975E-1,2.2000857E-3,-1.3042383E-1,-8.857707E-2,3.858678E-2,6.024522E-2,-1.45046655E-2,-7.891307E-3,-1.6643781E-3,-3.3191767E-2,5.1288966E-2,1.6084069E-1,4.3884855E-2,2.2924948E-1,1.316186E-1,9.323197E-3,8.007394E-2,-1.4023458E-3,3.1935286E-3,-0E0,-1.3971812E-1,-1.1254866E-4,-1.0124551E-1,6.906427E-3,-3.095177E-2,9.161514E-3,5.1534446E-3,-2.679909E-2,4.947005E-3,-5.1003356E-2,7.084278E-2,1.1965012E-1,6.955162E-3,6.9126785E-2,1.0629368E-2,1.623519E-2,6.0647116E-3,6.948358E-3,1.3360594E-2,-0E0,1.544234E-1,9.359907E-2,-0E0,3.598107E-3,-4.0224683E-3,-4.731708E-3,-8.72551E-3,-1.0762883E-3,-5.721973E-3,-3.379376E-3,-0E0,3.204887E-3,-1.8713305E-3,-2.684582E-3,-3.3099438E-6,-1.736585E-3,-6.595289E-3,5.119276E-4,5.1486604E-3,1.5533883E-3,8.485171E-3,-2.5572802E-3,1.897344E-3,6.502601E-3,-3.4806647E-4,-1.9617975E-3,2.488613E-3,8.959541E-3,3.005385E-3,5.0874087E-3,-0E0,-2.3584159E-3,3.1703543E-3],"categories":[],"categories_nodes":[],"categories_segments":[],"categories_sizes":[],"default_left":[0,0,0,0,0,0,0,0,0,0,0,0,0,0,0,0,0,0,0,0,0,0,0,0,0,0,0,0,0,0,0,0,0,0,0,0,0,0,0,0,0,0,0,0,0,0,0,0,0,0,0,0,0,0,0,0,0,0,0,0,0,0,0,0,0,0,0,0,0,0,0,0,0,0,0,0,0,0,0,0,0,0,0,0,0,0,0],"id":17,"left_children":[1,3,5,7,9,11,13,15,17,19,21,23,25,27,29,31,33,35,37,39,41,-1,-1,43,45,47,49,51,53,-1,55,-1,-1,57,59,-1,61,-1,63,-1,65,67,-1,69,71,73,75,77,-1,79,-1,-1,-1,-1,81,83,85,-1,-1,-1,-1,-1,-1,-1,-1,-1,-1,-1,-1,-1,-1,-1,-1,-1,-1,-1,-1,-1,-1,-1,-1,-1,-1,-1,-1,-1,-1],"loss_changes":[4.1901803E0,7.6594853E-1,1.0467594E0,2.4149609E-1,1.9703816E-1,4.3518E-1,2.2222829E-1,2.3748541E-1,2.0275256E-1,1.3219577E-1,4.729402E-2,1.8335785E-1,2.2177452E-1,1.1727357E-1,9.1699004E-2,3.1488597E-2,2.0262146E-1,2.3324579E-2,1.5343279E-1,1.9025677E-1,1.3212174E-1,0E0,0E0,1.461649E-1,1.0167427E-1,9.9509776E-2,8.273361E-2,6.2769175E-2,1.0479939E-1,0E0,5.802706E-2,0E0,0E0,8.155455E-2,2.1067858E-1,0E0,1.1287332E-2,0E0,1.591229E-2,0E0,6.279266E-2,5.9323058E-2,0E0,6.827125E-2,9.044167E-3,3.6724314E-2,4.563701E-2,7.3478326E-2,0E0,6.997871E-2,0E0,0E0,0E0,0E0,4.005003E-2,3.1015575E-2,3.7471853E-2,0E0,0E0,0E0,0E0,0E0,0E0,0E0,0E0,0E0,0E0,0E0,0E0,0E0,0E0,0E0,0E0,0E0,0E0,0E0,0E0,0E0,0E0,0E0,0E0,0E0,0E0,0E0,0E0,0E0,0E0],"parents":[2147483647,0,0,1,1,2,2,3,3,4,4,5,5,6,6,7,7,8,8,9,9,10,10,11,11,12,12,13,13,14,14,15,15,16,16,17,17,18,18,19,19,20,20,23,23,24,24,25,25,26,26,27,27,28,28,30,30,33,33,34,34,36,36,38,38,40,40,41,41,43,43,44,44,45,45,46,46,47,47,49,49,54,54,55,55,56,56],"right_children":[2,4,6,8,10,12,14,16,18,20,22,24,26,28,30,32,34,36,38,40,42,-1,-1,44,46,48,50,52,54,-1,56,-1,-1,58,60,-1,62,-1,64,-1,66,68,-1,70,72,74,76,78,-1,80,-1,-1,-1,-1,82,84,86,-1,-1,-1,-1,-1,-1,-1,-1,-1,-1,-1,-1,-1,-1,-1,-1,-1,-1,-1,-1,-1,-1,-1,-1,-1,-1,-1,-1,-1,-1],"split_conditions":[1E0,1.2E2,1.56E2,5E0,3E0,1.45E2,2.05E2,-4.0148798E-1,1.08462166E2,2.2068441E1,1.345E2,5E0,-7.4410397E-1,4.3388373E-1,1E0,1.37E2,1E0,8E1,1.2701706E1,1.15E2,1.61E2,-7.891307E-3,-1.6643781E-3,3.6E0,2.212204E1,1.47E2,1.88E2,1.92E2,1.145E2,9.323197E-3,3E0,-1.4023458E-3,3.1935286E-3,1.89E1,7.309513E-2,-1.1254866E-4,7.8E1,6.906427E-3,8.8E1,9.161514E-3,-9.7094184E-1,1.2E1,4.947005E-3,3.21E2,1.58E2,1.21E2,1.2E1,1.3833333E2,1.0629368E-2,1.38E2,6.0647116E-3,6.948358E-3,1.3360594E-2,-0E0,1.8921428E2,1.48E2,2.19E2,3.598107E-3,-4.0224683E-3,-4.731708E-3,-8.72551E-3,-1.0762883E-3,-5.721973E-3,-3.379376E-3,-0E0,3.204887E-3,-1.8713305E-3,-2.684582E-3,-3.3099438E-6,-1.736585E-3,-6.595289E-3,5.119276E-4,5.1486604E-3,1.5533883E-3,8.485171E-3,-2.5572802E-3,1.897344E-3,6.502601E-3,-3.4806647E-4,-1.9617975E-3,2.488613E-3,8.959541E-3,3.005385E-3,5.0874087E-3,-0E0,-2.3584159E-3,3.1703543E-3],"split_indices":[19,48,35,3,76,38,24,25,74,62,48,3,26,20,3,43,3,37,50,39,48,0,0,10,58,39,43,51,48,0,76,0,0,9,26,0,36,0,56,0,27,2,0,24,37,35,2,49,0,39,0,0,0,0,57,56,51,0,0,0,0,0,0,0,0,0,0,0,0,0,0,0,0,0,0,0,0,0,0,0,0,0,0,0,0,0,0],"split_type":[0,0,0,0,0,0,0,0,0,0,0,0,0,0,0,0,0,0,0,0,0,0,0,0,0,0,0,0,0,0,0,0,0,0,0,0,0,0,0,0,0,0,0,0,0,0,0,0,0,0,0,0,0,0,0,0,0,0,0,0,0,0,0,0,0,0,0,0,0,0,0,0,0,0,0,0,0,0,0,0,0,0,0,0,0,0,0],"sum_hessian":[7.18E2,3.8E2,3.38E2,2.35E2,1.45E2,1.88E2,1.5E2,1.86E2,4.9E1,1.27E2,1.8E1,1.14E2,7.4E1,7.7E1,7.3E1,1.3E1,1.73E2,3E1,1.9E1,3E1,9.7E1,9E0,9E0,7.7E1,3.7E1,2.9E1,4.5E1,4E1,3.7E1,1.2E1,6.1E1,8E0,5E0,1.2E1,1.61E2,5E0,2.5E1,8E0,1.1E1,8E0,2.2E1,8.9E1,8E0,6.7E1,1E1,1.3E1,2.4E1,1.2E1,1.7E1,3.5E1,1E1,1.4E1,2.6E1,6E0,3.1E1,5.1E1,1E1,6E0,6E0,7.3E1,8.8E1,5E0,2E1,5E0,6E0,1E1,1.2E1,4.2E1,4.7E1,5.8E1,9E0,5E0,5E0,6E0,7E0,7E0,1.7E1,7E0,5E0,1.2E1,2.3E1,2.3E1,8E0,4.6E1,5E0,5E0,5E0],"tree_param":{"num_deleted":"0","num_feature":"87","num_nodes":"87","size_leaf_vector":"1"}},{"base_weights":[6.201925E-4,-6.321758E-2,7.582799E-2,-1.3179122E-1,-3.3944864E-2,3.5459112E-2,1.5789118E-1,-1.6687335E-1,-7.107846E-2,-8.736077E-2,-2.1616302E-3,-4.8422124E-3,9.081235E-2,9.156096E-2,1.8009299E-1,-3.224023E-4,-1.8498035E-1,-8.830522E-2,-0E0,-0E0,-1.0857279E-1,2.4809085E-2,-4.696725E-2,-3.506704E-2,7.793208E-2,7.619645E-2,1.4277835E-2,1.5486665E-1,3.1680923E-2,2.1165772E-1,1.2729299E-1,-1.9847588E-1,-1.2641666E-4,-1.03396244E-1,-0E0,7.085276E-4,-1.4637025E-3,-5.348457E-2,3.7489198E-3,-0E0,-1.1760257E-1,8.144113E-3,1.6647755E-1,-9.7296685E-2,-2.0837773E-2,-7.3414326E-2,1.0358904E-2,1.2494965E-1,2.649889E-2,9.499141E-2,3.0227324E-2,4.090797E-3,1.0097182E-2,3.8587116E-3,-0E0,4.9857213E-3,1.1452676E-2,1.4030582E-1,1.3257774E-3,-1.0831443E-2,-3.8024064E-3,-2.9020626E-4,-5.9047285E-3,-3.9498457E-3,-0E0,-7.109602E-3,-3.5503004E-3,6.1242017E-3,-2.3338947E-4,1.4389725E-2,3.7383226E-5,-8.808952E-4,-6.7213075E-3,1.8464184E-3,-2.0856129E-3,-5.028137E-3,-0E0,-1.7750006E-3,1.8902514E-3,1.5779386E-3,8.196512E-3,-1.9037246E-4,3.5853384E-3,4.7919113E-4,5.5324947E-3,-0E0,3.5014607E-3,-1.8481564E-3,1.455346E-3,8.050292E-3,2.6671286E-3],"categories":[],"categories_nodes":[],"categories_segments":[],"categories_sizes":[],"default_left":[0,0,0,0,0,0,0,0,0,0,0,0,0,0,0,0,0,0,0,0,0,0,0,0,0,0,0,0,0,0,0,0,0,0,0,0,0,0,0,0,0,0,0,0,0,0,0,0,0,0,0,0,0,0,0,0,0,0,0,0,0,0,0,0,0,0,0,0,0,0,0,0,0,0,0,0,0,0,0,0,0,0,0,0,0,0,0,0,0,0,0],"id":18,"left_children":[1,3,5,7,9,11,13,15,17,19,21,23,25,27,29,-1,31,33,35,37,39,41,43,45,47,49,-1,51,53,55,57,59,-1,61,-1,-1,-1,63,-1,-1,65,67,69,71,73,75,77,79,81,83,85,-1,-1,-1,87,-1,-1,89,-1,-1,-1,-1,-1,-1,-1,-1,-1,-1,-1,-1,-1,-1,-1,-1,-1,-1,-1,-1,-1,-1,-1,-1,-1,-1,-1,-1,-1,-1,-1,-1,-1],"loss_changes":[3.5492654E0,7.7988017E-1,1.1014181E0,2.1567583E-1,4.6961886E-1,5.2212274E-1,1.1980939E-1,1.9171596E-1,4.8322484E-2,1.8469018E-1,2.1969171E-1,3.311909E-1,2.2100991E-1,9.395209E-2,7.415843E-2,0E0,1.394465E-1,5.0693065E-2,6.3466476E-3,9.0644225E-2,8.652991E-2,2.4324203E-1,7.689977E-2,1.7952022E-1,6.618336E-2,6.495768E-2,0E0,3.2479167E-3,2.9580643E-2,3.7755728E-2,2.418518E-2,8.760357E-2,0E0,3.1392336E-2,0E0,0E0,0E0,1.611622E-2,0E0,0E0,5.6809068E-2,1.6030945E-1,1.9209492E-1,4.751277E-2,5.9899002E-2,1.080831E-1,5.821181E-2,3.7164986E-2,3.3094566E-2,7.2506785E-2,4.1246545E-2,0E0,0E0,0E0,1.3280913E-2,0E0,0E0,2.2180736E-2,0E0,0E0,0E0,0E0,0E0,0E0,0E0,0E0,0E0,0E0,0E0,0E0,0E0,0E0,0E0,0E0,0E0,0E0,0E0,0E0,0E0,0E0,0E0,0E0,0E0,0E0,0E0,0E0,0E0,0E0,0E0,0E0,0E0],"parents":[2147483647,0,0,1,1,2,2,3,3,4,4,5,5,6,6,7,7,8,8,9,9,10,10,11,11,12,12,13,13,14,14,16,16,17,17,18,18,19,19,20,20,21,21,22,22,23,23,24,24,25,25,27,27,28,28,29,29,30,30,31,31,33,33,37,37,40,40,41,41,42,42,43,43,44,44,45,45,46,46,47,47,48,48,49,49,50,50,54,54,57,57],"right_children":[2,4,6,8,10,12,14,16,18,20,22,24,26,28,30,-1,32,34,36,38,40,42,44,46,48,50,-1,52,54,56,58,60,-1,62,-1,-1,-1,64,-1,-1,66,68,70,72,74,76,78,80,82,84,86,-1,-1,-1,88,-1,-1,90,-1,-1,-1,-1,-1,-1,-1,-1,-1,-1,-1,-1,-1,-1,-1,-1,-1,-1,-1,-1,-1,-1,-1,-1,-1,-1,-1,-1,-1,-1,-1,-1,-1],"split_conditions":[1E0,-2.2252093E-1,1E0,1.27E2,9.7E1,6.234898E-1,-2.2252093E-1,7.8E1,2.3E1,8.1E1,4.3388373E-1,5E0,1E0,1.47E2,4.3388373E-1,-3.224023E-4,1.36E2,2.67E2,1.45E2,2E0,8.3333336E1,4.4E0,8.8E1,1.7E0,1.39E2,1.6E2,1.4277835E-2,1.84E2,7.4E1,5E-1,2.03E2,1.4E2,-1.2641666E-4,9.9E1,-0E0,7.085276E-4,-1.4637025E-3,7.6E1,3.7489198E-3,-0E0,2.51E2,-9.844738E-1,9.8E1,2E1,2.1343388E1,7.8E1,1.53E2,1.18E2,1.24E2,2.3596731E1,1.56E2,4.090797E-3,1.0097182E-2,3.8587116E-3,8.3E1,4.9857213E-3,1.1452676E-2,7.2E1,1.3257774E-3,-1.0831443E-2,-3.8024064E-3,-2.9020626E-4,-5.9047285E-3,-3.9498457E-3,-0E0,-7.109602E-3,-3.5503004E-3,6.1242017E-3,-2.3338947E-4,1.4389725E-2,3.7383226E-5,-8.808952E-4,-6.7213075E-3,1.8464184E-3,-2.0856129E-3,-5.028137E-3,-0E0,-1.7750006E-3,1.8902514E-3,1.5779386E-3,8.196512E-3,-1.9037246E-4,3.5853384E-3,4.7919113E-4,5.5324947E-3,-0E0,3.5014607E-3,-1.8481564E-3,1.455346E-3,8.050292E-3,2.6671286E-3],"split_indices":[19,21,16,37,24,21,21,40,2,37,20,3,81,44,20,0,40,67,37,12,49,10,56,10,40,44,0,36,11,10,39,43,0,36,0,0,0,37,0,0,71,25,56,4,62,11,51,39,49,62,41,0,0,0,11,0,0,11,0,0,0,0,0,0,0,0,0,0,0,0,0,0,0,0,0,0,0,0,0,0,0,0,0,0,0,0,0,0,0,0,0],"split_type":[0,0,0,0,0,0,0,0,0,0,0,0,0,0,0,0,0,0,0,0,0,0,0,0,0,0,0,0,0,0,0,0,0,0,0,0,0,0,0,0,0,0,0,0,0,0,0,0,0,0,0,0,0,0,0,0,0,0,0,0,0,0,0,0,0,0,0,0,0,0,0,0,0,0,0,0,0,0,0,0,0,0,0,0,0,0,0,0,0,0,0],"sum_hessian":[7.37E2,3.98E2,3.39E2,1.17E2,2.81E2,2.29E2,1.1E2,7.2E1,4.5E1,1.03E2,1.78E2,1.32E2,9.7E1,3E1,8E1,8E0,6.4E1,3.5E1,1E1,2.1E1,8.2E1,1.1E2,6.8E1,9.8E1,3.4E1,9.2E1,5E0,1.3E1,1.7E1,4.7E1,3.3E1,5.9E1,5E0,3E1,5E0,5E0,5E0,1.3E1,8E0,6E0,7.6E1,1E2,1E1,2.1E1,4.7E1,5.4E1,4.4E1,1.6E1,1.8E1,6.3E1,2.9E1,7E0,6E0,7E0,1E1,8E0,3.9E1,2.8E1,5E0,5E1,9E0,5E0,2.5E1,8E0,5E0,4.7E1,2.9E1,1E1,9E1,5E0,5E0,8E0,1.3E1,1.1E1,3.6E1,3.9E1,1.5E1,1.5E1,2.9E1,6E0,1E1,1E1,8E0,1.1E1,5.2E1,1.6E1,1.3E1,5E0,5E0,2.1E1,7E0],"tree_param":{"num_deleted":"0","num_feature":"87","num_nodes":"91","size_leaf_vector":"1"}},{"base_weights":[4.3134806E-3,-2.7757948E-2,1.3393185E-1,-3.7894394E-2,2.1457939E-1,1.7222716E-1,8.0373935E-2,-9.09554E-2,1.0880114E-3,1.5131346E-3,1.2927082E-2,9.08789E-2,1.9887353E-1,-0E0,1.0309883E-1,-1.7045736E-1,-7.142927E-2,-3.0168103E-2,3.7139054E-2,1.123396E-1,5.7458127E-4,2.2398674E-1,1.22276805E-1,3.6934402E-3,-3.8029067E-3,1.1459725E-1,-0E0,-2.0119278E-1,-4.80758E-2,-1.1941089E-1,-5.492202E-2,6.6017555E-3,-3.7472676E-2,1.5123629E-3,6.8323985E-2,2.3182088E-3,7.1942993E-3,2.4123831E-1,4.3258048E-3,8.369605E-3,2.9722685E-3,4.729324E-2,1.4665143E-1,-3.9243964E-3,-1.1021263E-2,7.982842E-4,-6.0385657E-3,1.7814366E-3,-7.7345776E-3,-4.1497797E-3,-1.0713434E-3,-3.0967616E-3,9.830927E-4,-3.4530484E-3,7.6989934E-4,6.1032027E-3,2.0418123E-3,5.342725E-3,1.2788579E-2,3.741081E-3,1.6994687E-4,3.7024019E-3,8.301093E-3],"categories":[],"categories_nodes":[],"categories_segments":[],"categories_sizes":[],"default_left":[0,0,0,0,0,0,0,0,0,0,0,0,0,0,0,0,0,0,0,0,0,0,0,0,0,0,0,0,0,0,0,0,0,0,0,0,0,0,0,0,0,0,0,0,0,0,0,0,0,0,0,0,0,0,0,0,0,0,0,0,0,0,0],"id":19,"left_children":[1,3,5,7,9,11,13,15,17,-1,-1,19,21,23,25,27,29,31,33,35,-1,37,39,-1,-1,41,-1,43,45,47,49,-1,51,53,55,-1,-1,57,-1,-1,-1,59,61,-1,-1,-1,-1,-1,-1,-1,-1,-1,-1,-1,-1,-1,-1,-1,-1,-1,-1,-1,-1],"loss_changes":[3.0157223E0,1.4127412E0,2.562437E-1,1.1612101E0,1.4966393E-1,1.3069749E-1,1.2449035E-1,3.3154643E-1,3.6352533E-1,0E0,0E0,2.551119E-2,5.3400755E-2,8.447492E-2,5.949545E-2,1.3466585E-1,1.2887299E-1,1.9809651E-1,1.6067643E-1,9.68568E-3,0E0,4.8331976E-2,1.8389404E-2,0E0,0E0,7.0751786E-2,0E0,3.540504E-2,6.361957E-2,2.7450305E-1,1.260077E-1,0E0,2.3605846E-1,6.723379E-2,9.542355E-2,0E0,0E0,8.669138E-3,0E0,0E0,0E0,1.2465399E-2,4.483819E-3,0E0,0E0,0E0,0E0,0E0,0E0,0E0,0E0,0E0,0E0,0E0,0E0,0E0,0E0,0E0,0E0,0E0,0E0,0E0,0E0],"parents":[2147483647,0,0,1,1,2,2,3,3,4,4,5,5,6,6,7,7,8,8,11,11,12,12,13,13,14,14,15,15,16,16,17,17,18,18,19,19,21,21,22,22,25,25,27,27,28,28,29,29,30,30,32,32,33,33,34,34,37,37,41,41,42,42],"right_children":[2,4,6,8,10,12,14,16,18,-1,-1,20,22,24,26,28,30,32,34,36,-1,38,40,-1,-1,42,-1,44,46,48,50,-1,52,54,56,-1,-1,58,-1,-1,-1,60,62,-1,-1,-1,-1,-1,-1,-1,-1,-1,-1,-1,-1,-1,-1,-1,-1,-1,-1,-1,-1],"split_conditions":[1.2E2,1E0,2.14E2,1.39E2,8.975E1,-2.2252093E-1,1.36E2,8.9E1,1.345E2,1.5131346E-3,1.2927082E-2,1.47E2,1.96E2,1.53E2,4.2012306E1,7.6E1,-2.2252093E-1,1.4E2,1.36E2,1.29E2,5.7458127E-4,2.9E1,1.9624657E2,3.6934402E-3,-3.8029067E-3,1.57E2,-0E0,9.257143E1,8.1E1,1.087E2,8.9E1,6.6017555E-3,1.3614285E2,1.56296425E1,1.3214285E2,2.3182088E-3,7.1942993E-3,5E-1,4.3258048E-3,8.369605E-3,2.9722685E-3,1.7476666E2,1.6E2,-3.9243964E-3,-1.1021263E-2,7.982842E-4,-6.0385657E-3,1.7814366E-3,-7.7345776E-3,-4.1497797E-3,-1.0713434E-3,-3.0967616E-3,9.830927E-4,-3.4530484E-3,7.6989934E-4,6.1032027E-3,2.0418123E-3,5.342725E-3,1.2788579E-2,3.741081E-3,1.6994687E-4,3.7024019E-3,8.301093E-3],"split_indices":[56,6,24,24,48,21,39,39,48,0,0,56,37,36,66,64,21,59,35,42,0,2,73,0,0,36,0,53,39,61,24,0,53,54,53,0,0,10,0,0,0,65,47,0,0,0,0,0,0,0,0,0,0,0,0,0,0,0,0,0,0,0,0],"split_type":[0,0,0,0,0,0,0,0,0,0,0,0,0,0,0,0,0,0,0,0,0,0,0,0,0,0,0,0,0,0,0,0,0,0,0,0,0,0,0,0,0,0,0,0,0,0,0,0,0,0,0,0,0,0,0,0,0,0,0,0,0,0,0],"sum_hessian":[7.21E2,5.78E2,1.43E2,5.56E2,2.2E1,8.1E1,6.2E1,2.36E2,3.2E2,5E0,1.7E1,2.2E1,5.9E1,1.3E1,4.9E1,4.4E1,1.92E2,1.7E2,1.5E2,1.6E1,6E0,4.2E1,1.7E1,6E0,7E0,4.4E1,5E0,3.4E1,1E1,4.6E1,1.46E2,6E0,1.64E2,7.2E1,7.8E1,7E0,9E0,3.6E1,6E0,8E0,9E0,1.6E1,2.8E1,6E0,2.8E1,5E0,5E0,8E0,3.8E1,7.7E1,6.9E1,1.16E2,4.8E1,1E1,6.2E1,2.4E1,5.4E1,5E0,3.1E1,8E0,8E0,8E0,2E1],"tree_param":{"num_deleted":"0","num_feature":"87","num_nodes":"63","size_leaf_vector":"1"}},{"base_weights":[3.4114153E-3,-5.4915916E-2,6.864125E-2,-6.2761195E-2,1.5424676E-1,1.2823653E-1,2.4793727E-2,-9.5919535E-2,-2.5014369E-2,1.8690976E-3,1.019535E-2,7.225917E-2,1.6043733E-1,4.3255135E-2,-8.52912E-2,-6.7203365E-2,-1.2985541E-1,-7.8174375E-2,-3.19764E-3,-2.2276633E-3,8.627101E-2,1.1763098E-2,1.3063692E-1,1.178333E-1,2.8378842E-2,-1.3356368E-1,-0E0,-4.309015E-2,-1.4145899E-1,-1.5717337E-1,-7.044846E-2,-1.2933905E-1,-1.5789542E-2,9.286001E-3,-1.3040107E-2,1.00719914E-1,-3.358834E-4,9.4255835E-2,1.6896676E-1,-1.6875938E-5,1.5462251E-1,5.619829E-2,-1.958268E-3,-9.332627E-3,-8.01931E-5,2.9303464E-3,-2.3948026E-3,1.3921298E-3,-3.1071499E-3,-2.758113E-3,-8.559648E-3,-6.5172813E-3,-1.21526625E-2,-4.593396E-3,8.7219797E-4,-5.7896296E-4,-7.5515434E-3,-3.052568E-3,8.4956334E-4,-1.3905432E-3,3.278287E-3,7.984133E-3,3.7384634E-3,5.745038E-3,2.3448623E-3,1.8974933E-3,9.442828E-3,1.0193515E-2,3.8875078E-3,8.003807E-3,2.133736E-3,-1.5494087E-3,1.2174129E-3],"categories":[],"categories_nodes":[],"categories_segments":[],"categories_sizes":[],"default_left":[0,0,0,0,0,0,0,0,0,0,0,0,0,0,0,0,0,0,0,0,0,0,0,0,0,0,0,0,0,0,0,0,0,0,0,0,0,0,0,0,0,0,0,0,0,0,0,0,0,0,0,0,0,0,0,0,0,0,0,0,0,0,0,0,0,0,0,0,0,0,0,0,0],"id":20,"left_children":[1,3,5,7,9,11,13,15,17,-1,-1,19,21,23,25,27,29,31,33,-1,35,-1,37,39,41,43,45,47,49,51,53,55,57,-1,59,61,-1,63,65,-1,67,69,71,-1,-1,-1,-1,-1,-1,-1,-1,-1,-1,-1,-1,-1,-1,-1,-1,-1,-1,-1,-1,-1,-1,-1,-1,-1,-1,-1,-1,-1,-1],"loss_changes":[2.8320208E0,6.437807E-1,9.013308E-1,4.598719E-1,4.949817E-2,2.3190928E-1,4.1611183E-1,1.664691E-1,2.0037276E-1,0E0,0E0,1.0131052E-1,1.3781834E-1,1.784069E-1,1.2798284E-1,1.7599034E-1,1.10601306E-1,1.4623183E-1,2.2687788E-1,0E0,7.994324E-2,0E0,5.3970814E-2,1.3720813E-1,1.3212833E-1,1.1398134E-1,3.437282E-2,1.2273821E-1,3.4635663E-2,6.691301E-2,6.740579E-2,5.0959587E-2,4.2536326E-2,0E0,1.431814E-1,3.500107E-2,0E0,1.6562521E-2,5.093509E-2,0E0,3.9274454E-2,8.527768E-2,5.5639487E-2,0E0,0E0,0E0,0E0,0E0,0E0,0E0,0E0,0E0,0E0,0E0,0E0,0E0,0E0,0E0,0E0,0E0,0E0,0E0,0E0,0E0,0E0,0E0,0E0,0E0,0E0,0E0,0E0,0E0,0E0],"parents":[2147483647,0,0,1,1,2,2,3,3,4,4,5,5,6,6,7,7,8,8,11,11,12,12,13,13,14,14,15,15,16,16,17,17,18,18,20,20,22,22,23,23,24,24,25,25,26,26,27,27,28,28,29,29,30,30,31,31,32,32,34,34,35,35,37,37,38,38,40,40,41,41,42,42],"right_children":[2,4,6,8,10,12,14,16,18,-1,-1,20,22,24,26,28,30,32,34,-1,36,-1,38,40,42,44,46,48,50,52,54,56,58,-1,60,62,-1,64,66,-1,68,70,72,-1,-1,-1,-1,-1,-1,-1,-1,-1,-1,-1,-1,-1,-1,-1,-1,-1,-1,-1,-1,-1,-1,-1,-1,-1,-1,-1,-1,-1,-1],"split_conditions":[1.27E2,1E0,-7.3249406E-1,2E1,1.2E2,1.48E2,3E0,2.1941105E1,8.9E1,1.8690976E-3,1.019535E-2,1.25E2,1E0,2.14E2,3.4901947E1,2E0,6.234898E-1,2.51844E1,1.1736667E2,-2.2276633E-3,1E0,1.1763098E-2,5E0,2.1204966E1,-1.8369701E-16,1.58E2,1.37E2,8.7E1,9.5E1,7.7E1,9.483616E-1,1.085E2,1.1753333E2,9.286001E-3,1.55E2,1.3566667E2,-3.358834E-4,8.3E1,2.67E2,-1.6875938E-5,1.39E2,1.07E2,1E0,-9.332627E-3,-8.01931E-5,2.9303464E-3,-2.3948026E-3,1.3921298E-3,-3.1071499E-3,-2.758113E-3,-8.559648E-3,-6.5172813E-3,-1.21526625E-2,-4.593396E-3,8.7219797E-4,-5.7896296E-4,-7.5515434E-3,-3.052568E-3,8.4956334E-4,-1.3905432E-3,3.278287E-3,7.984133E-3,3.7384634E-3,5.745038E-3,2.3448623E-3,1.8974933E-3,9.442828E-3,1.0193515E-2,3.8875078E-3,8.003807E-3,2.133736E-3,-1.5494087E-3,1.2174129E-3],"split_indices":[44,6,26,4,35,39,76,58,56,0,0,51,3,67,70,76,21,62,65,0,78,0,3,62,23,51,39,40,42,11,25,57,69,0,35,49,0,72,67,0,42,35,19,0,0,0,0,0,0,0,0,0,0,0,0,0,0,0,0,0,0,0,0,0,0,0,0,0,0,0,0,0,0],"split_type":[0,0,0,0,0,0,0,0,0,0,0,0,0,0,0,0,0,0,0,0,0,0,0,0,0,0,0,0,0,0,0,0,0,0,0,0,0,0,0,0,0,0,0,0,0,0,0,0,0,0,0,0,0,0,0,0,0,0,0,0,0,0,0,0,0,0,0,0,0,0,0,0,0],"sum_hessian":[7.42E2,3.91E2,3.51E2,3.78E2,1.3E1,1.47E2,2.04E2,1.99E2,1.79E2,5E0,8E0,5.6E1,9.1E1,1.76E2,2.8E1,1.11E2,8.8E1,5E1,1.29E2,5E0,5.1E1,2.3E1,6.8E1,2.7E1,1.49E2,1.8E1,1E1,8.6E1,2.5E1,5.8E1,3E1,2.6E1,2.4E1,5E0,1.24E2,4.5E1,6E0,3.8E1,3E1,6E0,2.1E1,7.9E1,7E1,1.2E1,6E0,5E0,5E0,1.7E1,6.9E1,8E0,1.7E1,4.7E1,1.1E1,2.5E1,5E0,5E0,2.1E1,1.1E1,1.3E1,1.06E2,1.8E1,1.1E1,3.4E1,2.4E1,1.4E1,5E0,2.5E1,1.1E1,1E1,7E0,7.2E1,3.5E1,3.5E1],"tree_param":{"num_deleted":"0","num_feature":"87","num_nodes":"73","size_leaf_vector":"1"}},{"base_weights":[-1.114937E-3,-4.922391E-2,7.454721E-2,-8.06331E-2,-3.6553722E-3,3.4986757E-2,1.4220984E-1,-1.12867765E-1,-5.7196323E-2,1.1325019E-2,-7.7391304E-2,2.1701036E-2,1.0763685E-2,1.19224526E-1,2.1462597E-1,-1.9567718E-1,-8.371632E-2,3.483981E-2,-7.1409E-2,-5.079074E-2,2.7311238E-2,-8.2073705E-3,-2.200655E-2,-2.6728295E-2,5.9180822E-2,8.1024505E-2,1.6182388E-1,4.3751234E-3,1.1976063E-2,-3.6816949E-3,-2.2971064E-1,-4.1637238E-2,-1.1232485E-1,-1.0583485E-2,8.341431E-3,-1.424168E-1,-5.814596E-2,5.0118677E-3,-8.753604E-2,-5.6856046E-3,3.6143336E-2,-4.6701184E-3,4.3545305E-3,-7.691577E-2,2.9969268E-2,-0E0,7.252909E-2,-0E0,9.0712555E-2,8.676461E-3,3.6291287E-3,-1.4400171E-2,-5.7676206E-3,-3.4029875E-3,5.373991E-4,-6.7965663E-3,-1.5310192E-3,3.8249486E-3,-3.310589E-3,-9.157411E-3,-1.3161516E-3,-5.7435565E-4,-3.764806E-3,-5.482822E-3,-0E0,5.1643136E-3,8.167146E-4,3.7945106E-3,-3.2083713E-3,-6.0082613E-3,-1.2620878E-3,1.3009772E-4,7.2572143E-3,-2.4210212E-3,4.5081764E-3,4.1167596E-3,-1.5006331E-3,1.2784275E-4,5.1447386E-3],"categories":[],"categories_nodes":[],"categories_segments":[],"categories_sizes":[],"default_left":[0,0,0,0,0,0,0,0,0,0,0,0,0,0,0,0,0,0,0,0,0,0,0,0,0,0,0,0,0,0,0,0,0,0,0,0,0,0,0,0,0,0,0,0,0,0,0,0,0,0,0,0,0,0,0,0,0,0,0,0,0,0,0,0,0,0,0,0,0,0,0,0,0,0,0,0,0,0,0],"id":21,"left_children":[1,3,5,7,9,11,13,15,17,19,21,23,-1,25,27,29,31,33,35,37,39,-1,41,43,45,47,49,-1,-1,-1,51,53,55,57,-1,59,61,-1,63,-1,65,-1,67,69,71,73,75,-1,77,-1,-1,-1,-1,-1,-1,-1,-1,-1,-1,-1,-1,-1,-1,-1,-1,-1,-1,-1,-1,-1,-1,-1,-1,-1,-1,-1,-1,-1,-1],"loss_changes":[2.702038E0,6.425046E-1,7.4821293E-1,1.7900562E-1,2.1514662E-1,4.1235536E-1,1.15799665E-1,2.2122097E-1,2.1412951E-1,1.5394656E-1,1.3633612E-1,3.1884298E-1,0E0,9.7669125E-2,1.912868E-2,6.489706E-2,8.104777E-2,1.4329281E-1,1.0257012E-1,1.7954102E-1,1.5329012E-1,0E0,5.071707E-2,2.2041282E-1,8.46239E-2,2.882588E-2,1.4438033E-3,0E0,0E0,0E0,5.9767604E-2,5.7676204E-2,7.176286E-2,8.1544384E-2,0E0,6.88051E-2,8.648151E-2,0E0,4.1264206E-2,0E0,1.4595532E-1,0E0,8.44702E-2,7.4055925E-2,9.51688E-2,7.925576E-2,9.015718E-2,0E0,3.3222973E-2,0E0,0E0,0E0,0E0,0E0,0E0,0E0,0E0,0E0,0E0,0E0,0E0,0E0,0E0,0E0,0E0,0E0,0E0,0E0,0E0,0E0,0E0,0E0,0E0,0E0,0E0,0E0,0E0,0E0,0E0],"parents":[2147483647,0,0,1,1,2,2,3,3,4,4,5,5,6,6,7,7,8,8,9,9,10,10,11,11,13,13,14,14,15,15,16,16,17,17,18,18,19,19,20,20,22,22,23,23,24,24,25,25,26,26,30,30,31,31,32,32,33,33,35,35,36,36,38,38,40,40,42,42,43,43,44,44,45,45,46,46,48,48],"right_children":[2,4,6,8,10,12,14,16,18,20,22,24,-1,26,28,30,32,34,36,38,40,-1,42,44,46,48,50,-1,-1,-1,52,54,56,58,-1,60,62,-1,64,-1,66,-1,68,70,72,74,76,-1,78,-1,-1,-1,-1,-1,-1,-1,-1,-1,-1,-1,-1,-1,-1,-1,-1,-1,-1,-1,-1,-1,-1,-1,-1,-1,-1,-1,-1,-1,-1],"split_conditions":[1.37E2,1.21E2,1E0,8.7E1,3E0,1E0,1E0,-2.2252093E-1,1.1153333E2,1.04E2,2.7483192E1,1.3325E2,1.0763685E-2,1.9E2,1E0,9.45E1,9.5333336E1,1.06E2,3E-1,8.1E1,1.0742857E2,-8.2073705E-3,1.2215E2,1.3542857E2,7E0,6E0,1.9E2,4.3751234E-3,1.1976063E-2,-3.6816949E-3,9.3E1,-4.3388373E-1,1.05E2,9.6083336E1,8.341431E-3,1.14E2,2.6880333E1,5.0118677E-3,2.8E0,-5.6856046E-3,1.03E2,-4.6701184E-3,1.3971666E2,2.62E2,2.19E2,1E0,1.69E2,-0E0,2.2669468E1,8.676461E-3,3.6291287E-3,-1.4400171E-2,-5.7676206E-3,-3.4029875E-3,5.373991E-4,-6.7965663E-3,-1.5310192E-3,3.8249486E-3,-3.310589E-3,-9.157411E-3,-1.3161516E-3,-5.7435565E-4,-3.764806E-3,-5.482822E-3,-0E0,5.1643136E-3,8.167146E-4,3.7945106E-3,-3.2083713E-3,-6.0082613E-3,-1.2620878E-3,1.3009772E-4,7.2572143E-3,-2.4210212E-3,4.5081764E-3,4.1167596E-3,-1.5006331E-3,1.2784275E-4,5.1447386E-3],"split_indices":[35,44,16,24,76,6,8,21,61,40,70,48,0,44,77,57,49,24,10,40,53,0,65,53,2,2,37,0,0,0,41,20,44,65,0,44,66,0,10,0,37,0,65,71,35,21,37,0,54,0,0,0,0,0,0,0,0,0,0,0,0,0,0,0,0,0,0,0,0,0,0,0,0,0,0,0,0,0,0],"split_type":[0,0,0,0,0,0,0,0,0,0,0,0,0,0,0,0,0,0,0,0,0,0,0,0,0,0,0,0,0,0,0,0,0,0,0,0,0,0,0,0,0,0,0,0,0,0,0,0,0,0,0,0,0,0,0,0,0,0,0,0,0,0,0,0,0,0,0,0,0,0,0,0,0,0,0,0,0,0,0],"sum_hessian":[7.41E2,4.54E2,2.87E2,2.67E2,1.87E2,1.83E2,1.04E2,1.09E2,1.58E2,1.55E2,3.2E1,1.72E2,1.1E1,8.2E1,2.2E1,2.6E1,8.3E1,2E1,1.38E2,3E1,1.25E2,1.1E1,2.1E1,7.4E1,9.8E1,4.6E1,3.6E1,5E0,1.7E1,7E0,1.9E1,3.6E1,4.7E1,1.5E1,5E0,1.9E1,1.19E2,5E0,2.5E1,6E0,1.19E2,6E0,1.5E1,4E1,3.4E1,1.7E1,8.1E1,6E0,4E1,3E1,6E0,1.1E1,8E0,2.5E1,1.1E1,3.5E1,1.2E1,5E0,1E1,1.3E1,6E0,3.4E1,8.5E1,1.9E1,6E0,2.5E1,9.4E1,8E0,7E0,2E1,2E1,2.9E1,5E0,1.2E1,5E0,7.5E1,6E0,6E0,3.4E1],"tree_param":{"num_deleted":"0","num_feature":"87","num_nodes":"79","size_leaf_vector":"1"}},{"base_weights":[4.6871854E-3,-1.8367525E-2,1.3224292E-1,-6.345316E-2,1.1385233E-2,9.5373124E-2,1.7031878E-1,-7.286775E-2,1.1630121E-1,1.1251424E-1,8.3938845E-5,1.24917954E-1,5.3574815E-2,1.8395367E-1,2.105055E-3,-9.331907E-2,-2.892325E-2,1.8171978E-3,7.696791E-3,1.414693E-1,6.542082E-4,-6.055089E-2,1.840364E-2,1.3820003E-1,1.2724312E-3,3.7926284E-3,-0E0,1.2365863E-2,1.3483305E-1,-7.46969E-2,-1.510576E-1,-4.4014122E-2,5.699375E-3,8.232092E-3,1.8728046E-3,-7.380767E-2,3.3190686E-3,1.0187267E-2,1.769723E-1,3.1917833E-3,1.5518644E-1,8.761877E-2,9.304253E-3,2.9641793E-3,-4.1500027E-3,-9.895081E-3,1.2567068E-3,-4.6875295E-3,-3.56088E-4,-4.35632E-3,7.5166434E-4,-1.1808104E-3,1.4400812E-3,1.3119637E-2,3.2093655E-3,8.740666E-3,3.0158514E-3,1.8939562E-4,6.0442607E-3],"categories":[],"categories_nodes":[],"categories_segments":[],"categories_sizes":[],"default_left":[0,0,0,0,0,0,0,0,0,0,0,0,0,0,0,0,0,0,0,0,0,0,0,0,0,0,0,0,0,0,0,0,0,0,0,0,0,0,0,0,0,0,0,0,0,0,0,0,0,0,0,0,0,0,0,0,0,0,0],"id":22,"left_children":[1,3,5,7,9,11,13,15,17,19,21,23,25,27,-1,29,31,-1,-1,33,-1,35,37,39,-1,-1,-1,-1,41,43,45,47,-1,-1,-1,49,-1,51,53,-1,55,57,-1,-1,-1,-1,-1,-1,-1,-1,-1,-1,-1,-1,-1,-1,-1,-1,-1],